{"params": {"dense1": {"bias": [0.13072867691516876, 0.0, 0.11466940492391586, -0.060051605105400085, 0.0, -0.06005173549056053, -0.04347671940922737, -0.06005166098475456, -0.0823671743273735, 0.0, -0.07574249804019928, 0.16643297672271729, 0.154375821352005, -0.08314751088619232, 0.1639675498008728, 0.0, 0.0, 0.1620873212814331, 0.11302728950977325, 0.12846492230892181, 0.16393867135047913, 0.0, 0.0, -0.060051750391721725, 0.0, 0.044320084154605865, 0.0, 0.1345318704843521, 0.0, 0.10031169652938843, 0.1594962775707245, -0.05149997025728226, 0.15986594557762146, -0.07956773787736893, -0.08425609022378922, -1.4949837704484822e-16, 0.0, 0.0, 0.07004983723163605, 0.0, 0.15607747435569763, 0.1632126420736313, -0.05427362397313118, 0.0, 0.0, 0.0, -0.06005174294114113, 0.15154211223125458, -0.06005173176527023, 0.061458561569452286, 0.16751518845558167, 0.0, 0.1450248807668686, 0.0, 0.14003436267375946, 0.1050727516412735, 0.0, -0.06005173176527023, 0.0, -0.05154557526111603, 0.0, 0.0, 0.0, -2.803742257180412e-20], "kernel": [[0.054734792560338974, 0.051496271044015884, -0.0728740245103836, -0.011284076608717442, 0.11239572614431381, -0.18236595392227173, 0.2522886097431183, -0.0235888734459877, -0.1495584100484848, 0.07771231234073639, -0.08108600974082947, -0.1194029301404953, -0.029754208400845528, 0.21824955940246582, -0.27329257130622864, 0.18375782668590546, -0.06802809238433838, -0.3684801161289215, -0.18695667386054993, 0.017536502331495285, 0.0030540016014128923, 0.128850519657135, 0.1430555135011673, 0.06713137030601501, 0.08814259618520737, -0.03007657639682293, 0.1267578899860382, -0.15917077660560608, 0.08944248408079147, -0.335257887840271, -0.1768699437379837, -0.13280177116394043, -0.21386802196502686, 0.01075368095189333, 0.34234511852264404, -0.0624229833483696, -0.10988108068704605, 0.03541524335741997, -0.022565016523003578, 0.04746822267770767, -0.14917781949043274, -0.17057764530181885, -0.16482165455818176, 0.10146558284759521, -0.11598261445760727, -0.003315052017569542, -0.027865134179592133, -0.25640901923179626, 0.23033349215984344, 0.04887516424059868, -0.21214216947555542, -0.027728371322155, -0.16564607620239258, -0.0349055640399456, -0.21113549172878265, -0.18770000338554382, 0.02626088075339794, -0.10880828648805618, -0.09702473878860474, 0.08299566805362701, 0.017881717532873154, 0.077165387570858, -0.003406110219657421, -0.10580378025770187], [-0.24406437575817108, 0.21961955726146698, -0.2997928559780121, 0.11562947183847427, 0.20094208419322968, 0.11984242498874664, 0.0029488925356417894, 0.11812517046928406, -0.017962785437703133, 0.19524526596069336, 0.1514986753463745, -0.22653067111968994, -0.3381006121635437, 0.1469295769929886, -0.2115953117609024, 0.2252645045518875, -0.0666733831167221, -0.19310618937015533, -0.1611582487821579, -0.20589084923267365, -0.10086420923471451, 0.19301117956638336, 0.008584833703935146, 0.11710567027330399, 0.20552925765514374, -0.045156385749578476, 0.17286625504493713, -0.3169292211532593, -0.08821486681699753, -0.2563660740852356, 0.037351835519075394, -0.02340582385659218, -0.41205233335494995, -0.011546201072633266, -0.12226580828428268, 0.003783169900998473, -0.10387769341468811, 0.046274226158857346, -0.022206945344805717, 0.07393071055412292, -0.28478702902793884, -0.3219805657863617, 0.1009565070271492, -0.04297073185443878, -0.202247753739357, 0.12581579387187958, 0.14530177414417267, 0.010914704762399197, 0.1493394672870636, -0.11512653529644012, -0.2572007179260254, -0.17807821929454803, -0.1052585244178772, 0.14026157557964325, -0.11012592911720276, -0.36796051263809204, -0.11021275818347931, 0.17109723389148712, 0.08900532871484756, -0.1152818351984024, -0.005363329313695431, 0.05371270701289177, 0.16749726235866547, 0.00019758896087296307], [-0.08347810804843903, 0.19271281361579895, 0.22295153141021729, -0.20069491863250732, 0.11998177319765091, 0.03405650705099106, -0.3126867413520813, 0.16239683330059052, -0.1094106137752533, 0.1552220582962036, -0.18418514728546143, 0.13563008606433868, -0.05895042419433594, -0.08697359263896942, -0.0019221133552491665, 0.08019672334194183, 0.00866194348782301, 0.10973417013883591, -0.004071639850735664, 0.001431706827133894, 0.1379922777414322, -0.2123679220676422, 0.05859784036874771, 0.03738193213939667, -0.1156461238861084, 0.19287782907485962, -0.14217576384544373, 0.2087503969669342, 0.06115243583917618, -0.16320334374904633, 0.011426009237766266, -0.04008390009403229, 0.24603910744190216, -0.21646961569786072, 0.060322295874357224, 0.07517976313829422, 0.21783438324928284, 0.004589683376252651, -0.08504786342382431, -0.07164400815963745, 0.09948129951953888, -0.02220318838953972, 0.04610908776521683, -0.07976672798395157, 0.1878732442855835, 0.1722806990146637, 0.02104584313929081, 0.14799700677394867, 0.17333273589611053, 0.13651464879512787, 0.06447938084602356, 0.004104745574295521, -0.014593229629099369, -0.0018811014015227556, 0.05871593579649925, 0.08328796923160553, -0.017718030139803886, -0.33418190479278564, 0.036712244153022766, -0.02609206736087799, 0.08485540747642517, 0.11996181309223175, 0.001987059134989977, 0.24843066930770874], [-0.14599302411079407, -0.12448371201753616, -0.08044847100973129, -0.0388987772166729, -0.042429544031620026, 0.06816686689853668, -0.25446072220802307, 0.04519401118159294, 0.16449473798274994, -0.030271032825112343, 0.14801281690597534, -0.3345620334148407, -0.04736156761646271, 0.06012701243162155, -0.02120058797299862, -0.05671914666891098, -0.14579184353351593, 0.06558492034673691, -0.3468242287635803, -0.15911778807640076, 0.0651579275727272, -0.02481178753077984, 0.08163150399923325, -0.0966855138540268, -0.1356845200061798, -0.07588037103414536, 0.07522066682577133, 0.009889417327940464, 0.0691036656498909, -0.1498478353023529, -0.12390632182359695, 0.3202904462814331, -0.20701807737350464, -0.1313077062368393, -0.3444487750530243, -0.01906685158610344, -0.23468831181526184, -0.01007858756929636, -0.0044484613463282585, 0.24803835153579712, -0.06344794481992722, 0.030967289581894875, -0.17978841066360474, 0.041525233536958694, -0.10361520200967789, -0.05447773262858391, -0.0696064680814743, -0.17715027928352356, -0.25157880783081055, 0.02070043236017227, -0.11569838970899582, 0.08706890791654587, 0.0015917991986498237, -0.07515324652194977, -0.3268187344074249, -0.09830991178750992, 0.05824120342731476, -0.22015079855918884, -0.13955210149288177, -0.18336988985538483, 0.2656627595424652, -0.05498531833291054, 0.2735103666782379, -0.18585608899593353], [0.05070902407169342, 0.1214018389582634, -0.1461300402879715, 0.05166615545749664, 0.21310429275035858, 0.070100799202919, 0.1401117593050003, 0.2544587552547455, 0.09196313470602036, -0.00500986585393548, 0.04115603491663933, -0.053687162697315216, -0.08701461553573608, 0.09860251843929291, -0.24526482820510864, 0.013854640536010265, -0.0022690657060593367, -0.3709907829761505, -0.31208768486976624, -0.07824874669313431, -0.18890917301177979, -0.14389626681804657, -0.017100542783737183, 0.018627990037202835, -0.01738664321601391, -0.18095210194587708, 0.10010012239217758, -0.09539541602134705, 0.09419433772563934, -0.08710110932588577, 0.08639999479055405, 0.08771378546953201, -0.4341164827346802, -0.012962737120687962, 0.22431521117687225, -0.030453858897089958, 0.07227635383605957, 0.06183191016316414, -0.19047269225120544, 0.19835291802883148, -0.38336893916130066, -0.19503824412822723, 0.23889456689357758, -0.09789974987506866, 0.21026121079921722, 0.16057853400707245, -0.12110873311758041, -0.35679587721824646, 0.11251459270715714, -0.1673336774110794, -0.3253532350063324, -0.1390356868505478, -0.25669804215431213, -0.04792797937989235, 0.03929566591978073, -0.10234524309635162, -0.09350057691335678, -0.18564242124557495, -0.09384085983037949, 0.03845733031630516, 0.2416580468416214, 0.14503413438796997, 0.09367673844099045, 0.22304333746433258], [0.0927836000919342, -0.09401224553585052, 0.08641713112592697, 0.17565859854221344, 0.0612138956785202, -0.09062559902667999, 0.030993318185210228, 0.04059731215238571, 0.006095745600759983, -0.017726240679621696, 0.07141243666410446, 0.14829915761947632, 0.18766473233699799, -0.2466781735420227, 0.20670746266841888, -0.2779577672481537, 0.05458475649356842, 0.046889834105968475, 0.33198872208595276, 0.04532680660486221, 0.24875281751155853, 0.11788789927959442, -0.016036851331591606, -0.11981368809938431, -0.20441852509975433, 0.17776504158973694, -0.04285852983593941, 0.027272069826722145, -0.20866258442401886, -0.09239182621240616, 0.08790856599807739, 0.09872755408287048, 0.09230995923280716, 0.15201981365680695, -0.20195437967777252, 0.14142167568206787, -0.24406206607818604, -0.026363177224993706, 0.0498807393014431, 0.19125257432460785, 0.02297174744307995, 0.17455901205539703, -0.012258470058441162, 0.11540096998214722, -0.18420939147472382, -0.023154985159635544, 0.024498140439391136, 0.1934046745300293, -0.040053464472293854, 0.2099725306034088, 0.3970007598400116, 0.10698089748620987, 0.10158198326826096, -0.016224663704633713, 0.15508361160755157, 0.3016583025455475, -0.10111386328935623, 0.030433189123868942, 0.14195963740348816, -0.011743271723389626, 0.22100959718227386, 0.2791755199432373, 0.07565659284591675, -0.11824122816324234], [-0.18284253776073456, 0.04690584912896156, 0.2741576135158539, -0.17080435156822205, -0.13651017844676971, -0.2485765516757965, -0.309363454580307, -0.22964400053024292, -0.08266042172908783, 0.23819509148597717, 0.04694804176688194, -0.07930012047290802, 0.11523135006427765, -0.26145312190055847, 0.03186151757836342, -0.12455087900161743, -0.16869929432868958, -0.01800096593797207, 0.0250493586063385, 0.0014647081261500716, 0.07996068149805069, 0.10613985359668732, 0.1442665308713913, 0.01957298070192337, -0.012181923724710941, 0.005565037485212088, -0.16996386647224426, 0.05395060032606125, 0.00155569426715374, -0.007276899181306362, 0.04628286883234978, 0.20824971795082092, 0.24335448443889618, -0.04827737435698509, 0.057166315615177155, 0.03730105236172676, 0.166982039809227, 0.1198122501373291, 0.08215963840484619, 0.07398815453052521, -0.0853964239358902, 0.3852037191390991, 0.1255997121334076, 0.17336618900299072, -0.005871336907148361, 0.12105052173137665, -0.1778722107410431, 0.20282936096191406, -0.15769627690315247, -0.0526401624083519, 0.22378867864608765, 0.1667938232421875, -0.10741286724805832, 0.18896746635437012, 0.1597018837928772, 0.14691418409347534, -0.002338625956326723, -0.040601179003715515, 0.046586763113737106, 0.03632132336497307, -0.22282011806964874, 0.05458205193281174, -0.14198848605155945, -0.10496067255735397], [-0.18567630648612976, 0.13013672828674316, -0.11148843169212341, 0.16954390704631805, -0.11709752678871155, 0.01662611961364746, -0.055497992783784866, 0.025960803031921387, -0.0351577065885067, -0.17767192423343658, 0.18381686508655548, 0.03683748096227646, -0.22397208213806152, 0.0023389020934700966, -0.03809903562068939, 0.2011982798576355, 0.025701111182570457, -0.21944518387317657, -0.23657061159610748, -0.22549189627170563, -0.14093942940235138, -0.04520409181714058, 0.19215406477451324, 0.299551784992218, 0.13016889989376068, -0.1728985607624054, 0.03353156894445419, -0.23912616074085236, 0.028702085837721825, -0.3866890072822571, -0.0830760970711708, 0.05151737853884697, -0.06511331349611282, 0.24154101312160492, -0.055419448763132095, -0.03330473229289055, -0.11437074095010757, 0.03982837498188019, 0.06005312502384186, -0.04815465584397316, -0.1189303994178772, -0.12412777543067932, 0.2814759314060211, 0.1823180615901947, -0.014221123419702053, 0.10629028081893921, 0.13772056996822357, -0.31640884280204773, 0.18979769945144653, 0.1486140340566635, -0.23936565220355988, -0.12445070594549179, -0.2589453160762787, -0.05447830632328987, -0.020205434411764145, -0.16881294548511505, 0.09835022687911987, 0.011952092871069908, -0.028156224638223648, 0.10400491207838058, -0.06161482632160187, -0.22423675656318665, 0.06194741651415825, 0.05402534827589989], [-0.0812925472855568, -0.2250080406665802, -0.32995977997779846, 0.06407810002565384, 0.06047568470239639, 0.026228884235024452, 0.28475064039230347, 0.2067713439464569, 0.1934434026479721, 0.24423106014728546, 0.19888794422149658, -0.2749316394329071, -0.3397987186908722, 0.057240333408117294, -0.28931373357772827, 0.015403949655592442, 0.031237658113241196, -0.07938423752784729, -0.20201323926448822, -0.1321910172700882, -0.051604606211185455, 0.12377351522445679, 0.16490904986858368, 0.13378605246543884, -0.012774861417710781, -0.1678892821073532, -0.08918420970439911, -0.10763243585824966, 0.046076443046331406, 0.025736261159181595, -0.24420081079006195, -0.09754286706447601, -0.24836842715740204, -0.00643496448174119, 0.018102863803505898, 0.038417160511016846, -0.09741082787513733, -0.10426541417837143, 0.07190573960542679, -0.06655580550432205, 0.11299796402454376, -0.10302306711673737, 0.16378960013389587, 0.0424918457865715, 0.06124444678425789, -0.08957414329051971, 0.16292822360992432, -0.1537874937057495, -0.10021878033876419, 0.015141218900680542, -0.2552040219306946, 0.12269381433725357, -0.1080215722322464, 0.007433745078742504, 0.012009839527308941, -0.3267627954483032, 0.029425589367747307, 0.24906106293201447, -0.013933565467596054, 0.29002875089645386, -0.22934360802173615, 0.17121605575084686, -0.22194650769233704, 0.06972478330135345], [0.17494244873523712, 0.0041302102617919445, 0.3415054976940155, -0.15571630001068115, 0.10292533040046692, -0.0826508179306984, -0.17404912412166595, -0.019833166152238846, -0.23969806730747223, 0.10336317121982574, -0.10301465541124344, 0.3277168571949005, 0.3500435948371887, -0.09753561019897461, -0.10118744522333145, -0.2049795240163803, -0.05364179611206055, 0.3459618389606476, -0.06687656044960022, 0.022916646674275398, 0.19214271008968353, -0.17846837639808655, -0.07719606161117554, -0.06380189955234528, 0.08715184777975082, 0.08592529594898224, -0.02585175260901451, 0.2225414514541626, 0.03677385300397873, 0.21621088683605194, 0.24097944796085358, -0.1297600269317627, 0.07289940863847733, 0.06790134310722351, -0.20326833426952362, -0.019861627370119095, -0.004817309323698282, 0.11181800812482834, 0.1408877819776535, -0.10807835310697556, -0.06891081482172012, 0.2089643031358719, -0.03929648920893669, -0.11575894802808762, 0.16857777535915375, 0.04700815677642822, -0.17933857440948486, 0.21484000980854034, -0.17234280705451965, 0.2075946033000946, 0.06189028173685074, -0.2020464986562729, 0.31378182768821716, -0.0791252925992012, 0.16155165433883667, 0.15825186669826508, -0.05949696525931358, 0.18642333149909973, -0.08817335963249207, 0.02134360559284687, -0.026521991938352585, 0.18579338490962982, 0.12730897963047028, 0.020474890246987343], [-0.3302004337310791, 0.12043836712837219, -0.007166582625359297, 0.1737525761127472, -0.2540988326072693, -0.022984232753515244, 0.10564760118722916, -0.12282641977071762, -0.010244697332382202, 0.2284741997718811, 0.26334887742996216, -0.30622148513793945, -0.14149931073188782, -0.018080024048686028, 0.039743572473526, 0.04888538643717766, -0.035120561718940735, -0.36056408286094666, -0.24315233528614044, -0.020761441439390182, -0.0897136852145195, 0.02795540727674961, 0.09678786247968674, -0.1677607297897339, -0.09647013247013092, -0.018045002594590187, -0.10627833753824234, 0.003635706380009651, 0.11810744553804398, -0.07491103559732437, -0.05898790806531906, 0.2792474031448364, -0.24418635666370392, 0.2811732590198517, 0.0031769650522619486, 0.11768710613250732, -0.14185020327568054, -0.045535746961832047, -0.2388712763786316, 0.15306106209754944, -0.22643497586250305, -0.07923318445682526, 0.14849629998207092, -0.22785452008247375, 0.13139557838439941, 0.2526322901248932, 0.18088360130786896, -0.07790754735469818, 0.06919705122709274, 0.06731153279542923, -0.2118297815322876, 0.2612505555152893, -0.10322391241788864, -0.16965597867965698, -0.1451912224292755, -0.13496649265289307, 0.0779535099864006, 0.15852056443691254, -0.08035764843225479, -0.08351939916610718, 0.05434397608041763, -0.17017139494419098, 0.23543351888656616, -0.2086896300315857], [0.11295673251152039, 0.12449822574853897, 0.2579045295715332, 0.11715345829725266, 0.07605979591608047, -0.08717001974582672, 0.04213540628552437, -0.17212891578674316, 0.026427125558257103, -0.16817548871040344, 0.19542521238327026, 0.30426499247550964, 0.19282807409763336, -0.21481449902057648, 0.1574944704771042, -0.09766309708356857, 0.03760528936982155, -0.0306327473372221, -0.0524788424372673, 0.09078063815832138, 0.36887314915657043, -0.2081439197063446, -0.13185928761959076, -0.22017765045166016, 0.20004163682460785, 0.008120590820908546, 0.2831788957118988, 0.27467334270477295, 0.2296244204044342, 0.1935572475194931, 0.2918822765350342, 0.15173053741455078, 0.12879930436611176, -0.017391668632626534, -0.08181198686361313, 0.017137041315436363, -0.02522215060889721, 0.03558740392327309, 0.2413092851638794, -0.10471868515014648, 0.2646544575691223, 0.33277562260627747, 0.06903218477964401, 0.15283580124378204, 0.040360644459724426, -0.20558923482894897, -0.03302633762359619, 0.2780594825744629, 0.05070656165480614, 0.12452095001935959, 0.2020813226699829, 0.024181760847568512, 0.18460163474082947, -0.03034972958266735, -0.05924379453063011, 0.3395383358001709, -0.10431037098169327, -0.1343071460723877, 0.10243699699640274, 0.05470120906829834, 0.025784794241189957, 0.04123341664671898, -0.11959507316350937, 0.03683127462863922], [0.12874670326709747, 0.15735451877117157, 0.2574298679828644, 0.04882604256272316, 0.1440928429365158, -0.01656404323875904, 0.020077737048268318, 0.0028743306174874306, 0.11144246906042099, 0.18973921239376068, 0.14236636459827423, 0.26213979721069336, 0.27418825030326843, -0.20884452760219574, 0.2940498888492584, 0.05399062857031822, -0.12260346859693527, 0.37348222732543945, 0.2907625436782837, 0.0821419432759285, 0.16344942152500153, -0.06424108147621155, -0.14631448686122894, -0.0461290068924427, 0.22713571786880493, 0.14267143607139587, 0.05796588957309723, -0.011560814455151558, 0.053816232830286026, 0.21754653751850128, 0.2897857427597046, -0.2061542570590973, -0.023916423320770264, 0.0003495767305139452, -0.1776459664106369, -0.11387678235769272, -0.026311101391911507, -0.18329159915447235, 0.12595032155513763, -0.1301962435245514, 0.43499618768692017, 0.18094627559185028, -0.03660694509744644, -0.14142188429832458, -0.012916569598019123, -0.06300574541091919, -0.10825254023075104, 0.2446412444114685, 0.09933416545391083, -0.058320946991443634, 0.32755088806152344, 0.2253021001815796, -0.07481826841831207, -0.14305727183818817, 0.27582934498786926, 0.2268318235874176, -0.07850690931081772, -0.0760970190167427, 0.16849669814109802, -0.21981129050254822, 0.05393992364406586, -0.07650254666805267, -0.08048342913389206, -0.11833310127258301], [-0.2420368194580078, -0.1282249242067337, -0.17873229086399078, -0.07177264988422394, -0.010296432301402092, 0.14085254073143005, -0.012771088629961014, 0.09019327163696289, -0.004057302139699459, -0.02959567680954933, 0.1690967082977295, -0.21009637415409088, -0.18965759873390198, -0.024740105494856834, -0.03965791314840317, 0.04283944144845009, -0.11203639954328537, -0.1382489800453186, 0.05223416909575462, -0.3863131105899811, -0.24051439762115479, 0.055259253829717636, -0.07061174511909485, -0.11372173577547073, 0.1700281798839569, -0.12773022055625916, 0.036114394664764404, -0.0898033082485199, 0.16971930861473083, -0.32282400131225586, -0.18459159135818481, 0.15323574841022491, -0.07701628655195236, 0.2459668219089508, 0.11841683089733124, 0.05538211017847061, 0.08240839838981628, 0.11839239299297333, -0.06422597169876099, 0.07196608930826187, -0.13168209791183472, -0.16296419501304626, 0.04640320688486099, -0.06331310421228409, -0.03213625028729439, 0.02976812794804573, 0.14890387654304504, 0.09228260070085526, 0.0503055714070797, 0.03741264343261719, -0.15440355241298676, 0.09077699482440948, -0.23272359371185303, -0.17293508350849152, 0.12381184101104736, -0.06830912083387375, 0.12495838850736618, -0.13609400391578674, -0.09145460277795792, 0.1954335868358612, -0.042859673500061035, 0.2232753336429596, -0.031525060534477234, -0.0841648057103157], [-0.07944463193416595, -0.00442962720990181, -0.21512050926685333, 0.07504142820835114, -0.09085629135370255, -0.0012766227591782808, 0.08091045916080475, -0.0597851499915123, 0.13114067912101746, 0.07170992344617844, 0.09227924048900604, -0.22872766852378845, -0.2532733678817749, -0.023434849455952644, -0.12290269881486893, -0.1317579597234726, 0.037447068840265274, -0.315505713224411, -0.33471131324768066, -0.05353860557079315, -0.3082627058029175, 0.0829978808760643, 0.04262079671025276, -0.17343108355998993, 0.062229592353105545, -0.11836142838001251, 0.04760624095797539, -0.07454089820384979, 0.18882831931114197, -0.04534657672047615, -0.1185213029384613, 0.033406298607587814, -0.1523885279893875, 0.12511993944644928, 0.1388227641582489, -0.09828086197376251, -0.052454885095357895, -0.18939447402954102, -0.005436334293335676, 0.1153537854552269, -0.3271405100822449, -0.3318101763725281, -0.05353940650820732, -0.16184106469154358, -0.0041211675852537155, 0.1153172105550766, 0.15088467299938202, -0.23974105715751648, -0.21746374666690826, -0.15242891013622284, -0.13705302774906158, -0.05886442959308624, -0.042016707360744476, -0.06778515875339508, -0.21690894663333893, -0.1575242280960083, 0.014414707198739052, -0.026578862220048904, -0.0731821060180664, 0.2856629192829132, 0.11969223618507385, 0.09836211800575256, 0.08050250262022018, 0.030754148960113525], [0.0173963475972414, 0.058146655559539795, -0.13516481220722198, -0.19025589525699615, 0.0020374851301312447, 0.07159078121185303, 0.04416155442595482, 0.10287577658891678, -0.2672196924686432, 0.0011432719184085727, 0.027799533680081367, 0.06880797445774078, 0.16265453398227692, -0.19259698688983917, -0.07295673340559006, -0.11172883957624435, 0.07057551294565201, 0.16972191631793976, 0.12641987204551697, 0.03707370534539223, 0.22421814501285553, 0.08010295778512955, -0.09062206745147705, 0.16809827089309692, -0.06745336204767227, 0.07722534239292145, -0.047935739159584045, 0.29467377066612244, -0.2690232992172241, -0.16742296516895294, 0.004229404963552952, -0.08884505182504654, -0.07735759764909744, -0.12443093955516815, -0.18581576645374298, 0.08200071007013321, -0.034666672348976135, 0.029199406504631042, -0.1390373706817627, -0.18214714527130127, 0.046426501125097275, 0.0885181799530983, 0.07034850865602493, 0.022671405225992203, 0.00996201392263174, 0.061602089554071426, -0.02332337200641632, -0.17462602257728577, -0.05851267650723457, 0.11389129608869553, -0.1983054280281067, -0.10915397852659225, -0.08840478211641312, 0.10555586218833923, 0.1235746294260025, 0.00105818803422153, 0.01192956231534481, -0.0812019631266594, 0.005945045500993729, -0.22891943156719208, 0.07271149009466171, -0.13229183852672577, -0.1782771348953247, -0.09597502648830414], [-0.12916000187397003, 0.14168594777584076, -0.2081771343946457, 0.1183025911450386, 0.0035133061464875937, -0.17836114764213562, 0.009599864482879639, 0.10716403275728226, 0.07987555116415024, 0.0635448694229126, 0.22732456028461456, -0.2345295399427414, -0.11576822400093079, 0.14653199911117554, -0.18382351100444794, -0.10640721768140793, -0.14285847544670105, 0.0428127683699131, -0.03829678148031235, -0.11439162492752075, -0.07239736616611481, -0.004947003908455372, 0.18874868750572205, 0.014156948775053024, -0.1514345109462738, 0.2205095738172531, 0.21672464907169342, -0.23415862023830414, 0.027198558673262596, -0.19278545677661896, -0.23977158963680267, 0.15884196758270264, -0.05588430538773537, 0.12494069337844849, 0.07924279570579529, -0.17079393565654755, -0.03122495301067829, 0.27968400716781616, -0.04323117062449455, 0.09014777094125748, -0.316762775182724, -0.2489582598209381, -0.06674151867628098, 0.007001613266766071, 0.19842496514320374, -0.27774640917778015, 0.09454655647277832, 0.11039748042821884, 0.2157784104347229, 0.13846369087696075, -0.41382166743278503, -0.13367724418640137, -0.26035839319229126, -0.19076605141162872, -0.3905448913574219, 0.00752808153629303, -0.24684488773345947, -0.182214617729187, 0.21635538339614868, 0.04253995418548584, -0.13450740277767181, 0.12386683374643326, 0.10741526633501053, -0.06767268478870392], [0.020017385482788086, -0.03490360081195831, -0.04073568806052208, -0.06898538023233414, -0.03186628222465515, 0.13346947729587555, 0.251314640045166, 0.15321658551692963, 0.13897480070590973, -0.029129285365343094, 0.2065420001745224, 0.09000017493963242, 0.04037961736321449, 0.25538840889930725, 0.20420005917549133, 0.14627674221992493, 0.025998132303357124, 0.2101796567440033, 0.1011895090341568, 0.26385241746902466, 0.09726329892873764, 0.05673384666442871, -0.11526629328727722, -0.00598488561809063, -0.18794618546962738, 0.052069976925849915, -9.058690920937806e-05, -0.07101894170045853, -0.24547307193279266, 0.03864074498414993, -0.202347531914711, 0.14411303400993347, 0.048289526253938675, 0.016657687723636627, 0.09268327802419662, -0.030353503301739693, -0.05278495326638222, 0.06051682308316231, 0.2041420340538025, 0.0017916824435815215, -0.10069216042757034, -0.2441008985042572, 0.33743706345558167, -0.060284100472927094, 0.11482817679643631, 0.0595935694873333, 0.12381888180971146, 0.14138974249362946, 0.09028512984514236, -0.023623090237379074, -0.0017351268325001001, 0.07541096210479736, 0.13554368913173676, -0.11841567605733871, 0.01487322710454464, 0.1596214324235916, -0.04082771763205528, -0.03533743694424629, -0.060032784938812256, -0.13861459493637085, -0.07388853281736374, 0.20624904334545135, 0.0571737177670002, -0.0050630345940589905], [0.13079258799552917, -0.029742691665887833, 0.22249791026115417, -0.13542160391807556, 0.12128810584545135, -0.2039455771446228, 0.2176794409751892, 0.03571649640798569, -0.048531122505664825, -0.061023514717817307, 0.002607089001685381, 0.12138236314058304, 0.1939319521188736, -0.1403854489326477, 0.30456918478012085, -0.07456184178590775, 0.2119794636964798, 0.2706693410873413, -0.07686237245798111, 0.28834500908851624, -0.04978618770837784, 0.24707664549350739, 0.009621393866837025, -0.28177815675735474, -0.2205413430929184, 0.03578365221619606, 0.24289745092391968, -0.07285070419311523, -0.2574734687805176, -0.06283992528915405, 0.23761698603630066, 0.036071911454200745, 0.31283921003341675, -0.03892246633768082, 0.026100732386112213, -0.14054298400878906, -0.23597708344459534, -0.10761308670043945, 0.11647426337003708, 0.056665077805519104, 0.020334186032414436, 0.09665846079587936, -0.2679447829723358, -0.037895798683166504, 0.2020285576581955, -0.07160678505897522, 0.13782595098018646, 0.1967296153306961, -0.034228332340717316, 0.06413935869932175, 0.11364687234163284, -0.08145999908447266, 0.3533853590488434, -0.056689128279685974, 0.04677385091781616, 0.1980023980140686, -0.18132315576076508, -0.007956569083034992, -0.05453291907906532, -0.1882893443107605, -0.05684799700975418, 0.07721202820539474, 0.05336160585284233, 0.058261532336473465], [0.2295069396495819, 0.1115790456533432, 0.3004961609840393, -0.14606764912605286, 0.20964108407497406, -0.031017471104860306, -0.014490566216409206, -0.1254926323890686, 0.17777180671691895, 0.027260107919573784, 0.07845120877027512, 0.16818852722644806, 0.09090373665094376, -0.01609913446009159, 0.10788851976394653, 0.09050139784812927, 0.22307181358337402, 0.31908702850341797, 0.3424266278743744, 0.1572081297636032, 0.19714513421058655, -0.09285711497068405, 0.15993428230285645, -0.13673698902130127, 0.22665752470493317, -0.005470464006066322, 0.11991285532712936, -0.005404579918831587, 0.16044804453849792, 0.19354774057865143, 0.37512826919555664, -0.037267737090587616, 0.12045358866453171, -0.1762167066335678, -0.07792361080646515, -0.10409318655729294, 0.099033884704113, -0.09257309138774872, 0.21448352932929993, -0.05115661770105362, 0.10322004556655884, 0.06597162038087845, -0.1996031552553177, -0.019192904233932495, 0.04552238807082176, -0.09686295688152313, 0.043840400874614716, 0.3272380232810974, 0.13952980935573578, 0.11606896668672562, 0.08561858534812927, -0.008439837023615837, 0.3692053556442261, -0.04810456931591034, -0.08436301350593567, -0.021293791010975838, 0.13650350272655487, 0.13276076316833496, -0.009941617026925087, -0.18630391359329224, 0.06179386377334595, -0.0658261850476265, 0.1667754352092743, -0.037122245877981186], [0.08150416612625122, 0.06380821764469147, -0.06851168721914291, -0.038779910653829575, -0.2712447941303253, 0.2235301434993744, 0.007783363573253155, 0.32694751024246216, 0.11009561270475388, -0.07267116010189056, 0.1414114087820053, -0.18939201533794403, -0.14451444149017334, -0.16030175983905792, 0.014452021569013596, -0.06252508610486984, 0.08974200487136841, -0.31145748496055603, -0.1475943624973297, -0.0737895518541336, -0.13595405220985413, -0.1857861429452896, 0.03852152079343796, 0.30048513412475586, -0.04160154610872269, -0.040077656507492065, -0.055956557393074036, -0.23699836432933807, -0.2321723848581314, -0.05792592838406563, -0.14030781388282776, 0.1770317107439041, -0.25468212366104126, 0.10850214958190918, 0.1452425867319107, -0.24136586487293243, 0.033166516572237015, 0.14828667044639587, -0.25139105319976807, 0.009423076175153255, -0.3334038257598877, -0.0632350817322731, -0.2130952924489975, -0.10135237872600555, -0.18401585519313812, 0.09607559442520142, 0.04739396274089813, -0.1255396455526352, 0.11290407925844193, -0.13830307126045227, -0.38840407133102417, 0.050464920699596405, -0.21095918118953705, -0.2734174132347107, -0.09650899469852448, 0.009121024049818516, -0.012863459065556526, -0.028002331033349037, -0.13333040475845337, 0.02946455404162407, -0.03086705505847931, -0.1818052977323532, -0.12680570781230927, -0.10030202567577362], [0.3036901354789734, -0.1004418432712555, -0.042399484664201736, 0.06066319718956947, 0.07868888974189758, -0.014253824017941952, 0.10239293426275253, 0.08490186184644699, 0.03196125850081444, 0.06922823190689087, -0.07240792363882065, 0.3549621105194092, 0.07430904358625412, -0.14230205118656158, 0.13861073553562164, 0.10606659203767776, 0.01749669946730137, 0.10121709853410721, 0.08006959408521652, 0.35015520453453064, -0.0008633395773358643, 0.021266648545861244, 0.02880377694964409, -0.1489291489124298, -0.1270211786031723, -0.1590917855501175, -0.13795389235019684, 0.13467225432395935, 0.15695789456367493, 0.1893944889307022, 0.08079913258552551, -0.011172495782375336, 0.1816083937883377, -0.05054912716150284, -0.3642720580101013, -0.006714521907269955, 0.1790706217288971, 0.02046596072614193, 0.1073741465806961, 0.05583254247903824, 0.23207353055477142, 0.2565271556377411, -0.20088914036750793, -0.25261539220809937, 0.03018454648554325, 0.0792592242360115, -0.09809958934783936, 0.2173083871603012, -0.13184300065040588, -0.04539898410439491, 0.057507727295160294, -0.21419721841812134, 0.04828358441591263, -0.14335353672504425, 0.27462419867515564, 0.3496353030204773, 0.12079281359910965, 0.10237149149179459, -0.0325445793569088, -0.24045076966285706, 0.10530053824186325, -0.09931562840938568, -0.11858443170785904, 0.009591535665094852], [0.16630002856254578, 0.13051840662956238, -0.0396711528301239, -0.1651420295238495, 0.09842275828123093, 0.15424703061580658, -0.05130230262875557, 0.014199724420905113, 0.0222886111587286, 0.21983855962753296, -0.2394271194934845, 0.2518170177936554, 0.21002301573753357, -0.02467256225645542, 0.2995237708091736, -0.048849139362573624, -0.09283006936311722, 0.03438995033502579, 0.3044479489326477, 0.27533382177352905, 0.1410025656223297, 0.11015111207962036, -0.28320547938346863, -0.200127512216568, 0.009575935080647469, -0.03067869506776333, 0.010859427973628044, 0.08069885522127151, -0.09154301881790161, 0.23056085407733917, 0.08502265810966492, 0.13159100711345673, 0.21453550457954407, -0.060796525329351425, -0.04762428253889084, 0.004176556598395109, 0.0011750493431463838, -0.14841726422309875, 0.04175557941198349, -0.04329872876405716, 0.0020117645617574453, 0.011837383732199669, -0.24701033532619476, 0.01755412295460701, -0.06593874096870422, -0.08972948789596558, 0.1288829743862152, 0.15618126094341278, -0.2347443401813507, 0.22708457708358765, 0.12379205226898193, 0.00789403636008501, -0.08679508417844772, 0.20361799001693726, 0.037256915122270584, 0.290850967168808, -0.0838930681347847, -0.07282235473394394, 0.010955769568681717, -0.24673578143119812, 0.03595714643597603, -0.05081651359796524, -0.025244878605008125, 0.17806917428970337], [0.10924690961837769, 0.03728339448571205, -0.09338151663541794, 0.04159107431769371, 0.13026167452335358, 0.1570751816034317, 0.04203483834862709, -0.1006082147359848, 0.08993159979581833, -0.1454068422317505, 0.1970289647579193, -0.0030698971822857857, -0.04901435598731041, 0.11138112843036652, -0.25565358996391296, -0.17161549627780914, 0.18750187754631042, -0.3006950616836548, -0.2850150763988495, -0.1804017275571823, -0.29221487045288086, -0.03477040305733681, 0.15692520141601562, 0.08553018420934677, -0.0020484295673668385, -0.06484702974557877, 0.17351999878883362, -0.06090448796749115, 0.12760725617408752, -0.12439504265785217, -0.42735305428504944, -0.14331582188606262, -0.1461278200149536, -0.08543981611728668, -0.034305818378925323, -0.17028021812438965, -0.20072390139102936, 0.04211198166012764, -0.243055060505867, -0.15391583740711212, -0.2670542895793915, -0.05496910214424133, -0.06809669733047485, 0.15533088147640228, 0.043628692626953125, 0.2720324993133545, -0.04063441604375839, -0.23291663825511932, 0.07141109555959702, -0.04364197701215744, 0.0060920980758965015, -0.008298220112919807, -0.27460697293281555, 0.17311729490756989, -0.32753700017929077, -0.23475946485996246, -0.03861743584275246, 0.10216294229030609, -0.10260710120201111, 0.20411807298660278, -0.20442534983158112, -0.009835249744355679, 0.009143464267253876, 0.08029074221849442], [-0.22682055830955505, -0.11857582628726959, -0.263979434967041, 0.11792442947626114, 0.2400459200143814, 0.11641595512628555, 0.2441987544298172, 0.13225765526294708, 0.19437642395496368, 0.011917073279619217, -0.13847433030605316, -0.12266511470079422, -0.362243115901947, -0.0684734433889389, -0.13157585263252258, 0.1847076565027237, -0.06444306671619415, -0.013958285562694073, -0.15515589714050293, -0.08597929030656815, -0.0353744700551033, -0.0662602037191391, 0.0983368530869484, 0.20431295037269592, -0.16780328750610352, -0.045463960617780685, -0.17659686505794525, 0.018522297963500023, -0.058710336685180664, -0.1772351711988449, -0.3051091432571411, 0.18771007657051086, -0.28231221437454224, 0.3505067825317383, 0.32071250677108765, -0.042066749185323715, 0.15094022452831268, 0.23666933178901672, 0.18626832962036133, -0.16009844839572906, 0.062286555767059326, -0.04317176342010498, 0.11084621399641037, 0.08250633627176285, 0.08044156432151794, -0.14321866631507874, 0.08258554339408875, -0.05935592204332352, 0.09434444457292557, -0.2004532665014267, -0.05458886921405792, 0.2582542598247528, -0.17449863255023956, 0.021819280460476875, -0.4038998484611511, -0.2221374660730362, 0.16430218517780304, -0.020329464226961136, 0.24433209002017975, 0.04998040571808815, 0.2296709567308426, -0.17780156433582306, -0.014414993114769459, -0.22717775404453278], [-0.324735164642334, -0.09129602462053299, -0.2915095388889313, 0.1447289139032364, -0.042930763214826584, 0.2124335765838623, -0.038341935724020004, 0.025763098150491714, 0.16819293797016144, -0.12285487353801727, 0.34540578722953796, -0.30552706122398376, -0.09717586636543274, 0.03388947993516922, -0.02802238240838051, -0.21377834677696228, -0.05472572147846222, -0.2144821137189865, 0.05840948224067688, -0.18384303152561188, 0.02942502126097679, 0.013848002068698406, 0.20128700137138367, -0.04447384551167488, -0.05786596238613129, -0.12706121802330017, -0.08328770846128464, -0.1324891746044159, -0.08314650505781174, -0.1917455494403839, 0.1192481592297554, 0.14393530786037445, -0.13522666692733765, -0.04957403242588043, 0.10181652754545212, -0.10417301952838898, -0.01187221147119999, -0.06086191534996033, -0.13547497987747192, -0.2728608548641205, -0.08080343157052994, -0.29297858476638794, -0.07403048872947693, -0.10435933619737625, -0.15860213339328766, 0.14192774891853333, 0.014367206953465939, -0.13673581182956696, -0.14130285382270813, -0.14593714475631714, -0.23612482845783234, -0.16561903059482574, -0.09494765102863312, 0.22041021287441254, -0.035362377762794495, -0.19318845868110657, -0.09707161784172058, 0.07697587460279465, -0.09581083804368973, 0.13681243360042572, 0.0960330218076706, 0.11268500238656998, 0.2201584428548813, 0.018607383593916893], [-0.031513042747974396, -0.12469266355037689, -0.14605297148227692, 0.2627609074115753, 0.11984307318925858, -0.023860488086938858, -0.018895180895924568, 0.025141922757029533, 0.15557099878787994, 0.08851616829633713, 0.00068697176175192, -0.2946171462535858, -0.09047888219356537, 0.028309499844908714, -0.3456072211265564, 0.2552478611469269, 0.05143698304891586, -0.04491867870092392, -0.0611552894115448, -0.2007879912853241, -0.2533760964870453, 0.15829657018184662, -0.09295196831226349, -0.18170584738254547, 0.12670698761940002, -0.1785828173160553, -0.23446492850780487, 0.0468100905418396, 0.10210984945297241, -0.29646506905555725, -0.180874764919281, -0.14808019995689392, -0.03824225068092346, 0.1510862559080124, -0.050430793315172195, 0.023444514721632004, 0.11607109010219574, 0.0680369958281517, 0.053838785737752914, -0.13485753536224365, -0.33399614691734314, -0.233736053109169, 0.30266720056533813, -0.09541749954223633, 0.012986533343791962, -0.04652826115489006, 0.10743030160665512, -0.2546025216579437, 0.26649460196495056, -0.017403768375515938, -0.11956403404474258, -0.07660216838121414, 0.09920558333396912, 0.28198033571243286, -0.06446503102779388, -0.14016093313694, -0.11295998841524124, 0.12158412486314774, 0.13588841259479523, -0.07289475947618484, -0.2601809501647949, 0.021404292434453964, 0.14319652318954468, 0.17026084661483765], [0.2746499478816986, -0.16262011229991913, 0.3298633098602295, 0.015466306358575821, 0.16911734640598297, -0.1800210028886795, 0.15851962566375732, 0.34179431200027466, 0.22759054601192474, -0.08568160235881805, 0.0028801215812563896, 0.17627623677253723, 0.2590598165988922, -0.10781081020832062, 0.17679330706596375, -0.06577962636947632, 0.10142683237791061, 0.3366727828979492, -0.07023156434297562, 0.08411011099815369, 0.03270791098475456, -0.04761245846748352, -0.1679455041885376, -0.14504507184028625, -0.16211119294166565, 0.4086523652076721, -0.1285928636789322, 0.09050823003053665, -0.2719244360923767, 0.16516165435314178, 0.21309955418109894, 0.028335638344287872, 0.15766043961048126, -0.2052898108959198, 0.12060865759849548, 0.2666601538658142, -0.04551804065704346, -0.06808240711688995, 0.3064683675765991, -0.03723439201712608, 0.2338939756155014, 0.04688090831041336, 0.17900921404361725, -0.0862220823764801, -0.10155261307954788, -0.18046799302101135, 0.1431896835565567, 0.13137081265449524, 0.26341843605041504, 0.032060619443655014, 0.21010538935661316, 0.023066191002726555, 0.18401753902435303, -0.09208180010318756, 0.22795705497264862, 0.2660667896270752, -0.0839729830622673, 0.12380992621183395, 0.12804077565670013, 0.06536506116390228, -0.06289803981781006, 0.10711025446653366, 0.05390263348817825, 0.10482782125473022], [-0.31644535064697266, 0.157573401927948, 0.04238274693489075, -0.04878656938672066, 0.1319269835948944, 0.21934987604618073, -0.0015726793790236115, 0.20947721600532532, 0.16147904098033905, 0.1234162300825119, 0.18250156939029694, -0.17934852838516235, -0.40517091751098633, -0.1161506250500679, -0.1926516592502594, 0.032187480479478836, -0.026292547583580017, -0.35265490412712097, -0.11488901823759079, -0.0537324920296669, -0.32980096340179443, -0.08254711329936981, 0.03922044485807419, 0.044599708169698715, 0.0056884316727519035, -0.14457716047763824, -0.03427313640713692, -0.19112370908260345, -0.06693815439939499, -0.1868990659713745, -0.2004736214876175, 0.13195325434207916, -0.07434632629156113, 0.06152639165520668, -0.14948523044586182, -0.004684455692768097, 0.2018897384405136, 0.06935755163431168, -0.1964394450187683, -0.00996534526348114, -0.020564327016472816, -0.15561309456825256, 0.01044097077101469, 0.04489386826753616, 0.03145560249686241, -0.22158901393413544, 0.24854141473770142, -0.1719163954257965, -0.06997374445199966, -0.13727818429470062, -0.1614694595336914, -0.13623224198818207, -0.06037192419171333, -0.021701456978917122, -0.13549552857875824, -0.24527649581432343, 0.26660117506980896, -0.0326140932738781, 0.18446330726146698, -0.10056136548519135, -0.2346600890159607, -0.03045075200498104, 0.051103681325912476, 0.18953435122966766], [-0.09730422496795654, 0.07291720807552338, -0.0703660324215889, -0.11500018835067749, 0.1849128156900406, 0.2851353883743286, -0.017323313280940056, -0.09216552972793579, -0.0962400883436203, -0.11675256490707397, 0.12019853293895721, -0.12225141376256943, -0.025811271741986275, 0.3177565038204193, -0.23243209719657898, 0.18902666866779327, -0.0618387795984745, -0.19181454181671143, -0.2828228771686554, -0.22509819269180298, -0.14250992238521576, -0.129221111536026, 0.08996763080358505, 0.22728556394577026, -0.11592698842287064, -0.17043958604335785, -0.011622052639722824, -0.04276104271411896, -0.027533788233995438, -0.07336729019880295, -0.312510222196579, 0.08956821262836456, -0.08621080219745636, 0.112201027572155, 0.1288144886493683, -0.058158423751592636, -0.04722105711698532, -0.0489218533039093, -0.14744789898395538, -0.24127912521362305, -0.3410322964191437, -0.15828940272331238, 0.09922459721565247, 0.19884248077869415, -0.12550419569015503, -0.08115199208259583, 0.1866946965456009, 0.053504131734371185, -0.18842390179634094, -0.2787313759326935, -0.13163359463214874, -0.04501808062195778, -0.10238829255104065, -0.0022267457097768784, -0.06786738336086273, -0.2741912007331848, 0.06946633011102676, 0.04242308437824249, 0.040353089570999146, 0.06693654507398605, 0.09460388869047165, 0.10844026505947113, 0.12440259754657745, -0.08384088426828384], [0.0424799844622612, -0.07760167866945267, 0.2193758189678192, -0.16042600572109222, 0.02642771601676941, 0.17147770524024963, 0.010174081660807133, 0.05877652019262314, 0.008307460695505142, 0.25916188955307007, -0.19428586959838867, 0.1508488953113556, 0.2075827717781067, -0.11748158186674118, 0.13640306890010834, 0.11652815341949463, -0.2370849996805191, 0.2220355123281479, -0.010737755335867405, -0.07947703450918198, 0.18903280794620514, 0.032614488154649734, 0.08121969550848007, -0.017490077763795853, 0.04280555248260498, 0.21784336864948273, -0.07837086915969849, 0.09241969138383865, 0.2814476191997528, 0.055270880460739136, 0.24025769531726837, 0.1413377821445465, 0.11357825994491577, -0.1634531170129776, -0.06696698814630508, 0.01774270087480545, -0.0157146118581295, -0.10852900892496109, -0.04523620009422302, 0.040421709418296814, 0.23206643760204315, 0.22868657112121582, 0.15412352979183197, -0.03470471501350403, -0.10863929241895676, -0.013572734780609608, -0.00011922985140699893, -0.05965699627995491, -0.07792078703641891, 0.07719488441944122, 0.28874456882476807, 0.19062061607837677, 0.2041831910610199, 0.030897684395313263, 0.05509653687477112, 0.2990207076072693, -0.04732930660247803, -0.032087542116642, 0.07595027983188629, 0.022952387109398842, -0.11776776611804962, 0.14338602125644684, -0.10611587762832642, -0.13959038257598877], [0.3631078898906708, 0.07553430646657944, 0.08248689770698547, -0.019156208261847496, -0.046469032764434814, 0.0640452429652214, 0.17398318648338318, -0.029421266168355942, 0.016430946066975594, 0.0014428090071305633, -0.009966649115085602, 0.25923433899879456, 0.13160279393196106, -0.12289326637983322, 0.4053979218006134, -0.04367334768176079, 0.1587289422750473, 0.09611589461565018, 0.1464124321937561, 0.3168060779571533, 0.1812392920255661, -0.02354275807738304, -0.07616346329450607, 0.03662066161632538, -0.18228188157081604, 0.1533748209476471, -0.2173033356666565, 0.11472448706626892, -0.10046401619911194, -0.03408167138695717, 0.039413709193468094, 0.1769057959318161, 0.13372118771076202, -0.047403283417224884, -0.1291140764951706, 0.11179394274950027, -0.11686477810144424, 0.009068856947124004, 0.10144681483507156, 0.07811982184648514, 0.2104562222957611, 0.4465581476688385, -0.06894616037607193, 0.0553898960351944, 0.17083166539669037, 0.04394379258155823, 0.0321093313395977, 0.250088632106781, -0.09983455389738083, 0.1472962200641632, 0.13979679346084595, -0.16473941504955292, 0.2052246779203415, -0.0577675998210907, 0.2552286386489868, 0.0748753473162651, -0.044754743576049805, -0.23158544301986694, -0.00368983531370759, -0.19691194593906403, -0.25329893827438354, -0.037064328789711, 0.029137151315808296, 0.051588475704193115], [0.3108678460121155, 0.05294839292764664, 0.11091087013483047, -0.049078475683927536, -0.17092669010162354, 0.13785003125667572, -0.12487790733575821, 0.030992180109024048, 0.05341937020421028, -0.01671031303703785, -0.11808175593614578, 0.18359938263893127, 0.08732553571462631, 0.0974166989326477, 0.24547217786312103, -0.0749083012342453, -0.024473613128066063, 0.22788207232952118, 0.28558215498924255, 0.06177453324198723, 0.20755019783973694, -0.08827508240938187, -0.06275225430727005, 0.14606624841690063, -0.04546266049146652, 0.046456776559352875, -0.008644036017358303, 0.13428685069084167, -0.11474179476499557, 0.1336212158203125, 0.07950673252344131, 0.09616656601428986, 0.24042488634586334, 0.02690797485411167, -0.08377446979284286, 0.08108849078416824, 0.03458183631300926, -0.0977225974202156, 0.07684300094842911, -0.21289828419685364, 0.19169683754444122, 0.058241505175828934, -0.0998891070485115, -0.009272380731999874, -0.05288631469011307, -0.2729324400424957, -0.10368981957435608, 0.08465147018432617, 0.11579815298318863, 0.005053892731666565, 0.06350455433130264, -0.16307225823402405, -0.06791133433580399, 0.05791519954800606, 0.136836975812912, 0.03549952059984207, 0.025681419298052788, -0.038979850709438324, -0.05017958953976631, -0.1669502705335617, -0.17575722932815552, 0.18667210638523102, 0.0012421306455507874, -0.06533070653676987], [0.2187654972076416, 0.18144196271896362, 0.14777490496635437, -0.11888779699802399, 0.09798800200223923, -0.19111518561840057, 0.1118478775024414, -0.1090998649597168, 0.10768412053585052, -0.24548210203647614, -0.07222788035869598, 0.13372591137886047, 0.12427277117967606, -0.0520804263651371, 0.1564490646123886, -0.021230043843388557, 0.18779781460762024, -0.05162641406059265, 0.17340511083602905, -0.12897889316082, 0.2950434982776642, -0.17312954366207123, -0.21681621670722961, -0.17099207639694214, 0.19369874894618988, 0.21938881278038025, 0.028247414156794548, 0.21701882779598236, -0.06941106915473938, 0.05036834254860878, 0.2727128863334656, -0.08867715299129486, 0.30751553177833557, -0.050151318311691284, -0.06933555752038956, -0.08161252737045288, 0.022203557193279266, -0.11456320434808731, 0.014057938940823078, -0.1984712779521942, 0.36141759157180786, 0.16004368662834167, 0.11227505654096603, -0.20400486886501312, -0.10574952512979507, -0.17485246062278748, -0.16863535344600677, 0.26213669776916504, 0.10988353192806244, 0.09287117421627045, 0.2081693857908249, 0.02031039074063301, 0.273432195186615, 0.17623494565486908, 0.11662967503070831, 0.3646887540817261, -0.026327427476644516, 0.04562212899327278, -0.23993660509586334, -0.2192409634590149, 0.06666012853384018, 0.09232858568429947, 0.0715634748339653, 0.10876261442899704], [0.27866286039352417, -0.16446708142757416, 0.2557520866394043, 0.1455521434545517, 0.15984579920768738, -0.04051608219742775, -0.08152306079864502, -0.3329984247684479, -0.25927191972732544, -0.011642386205494404, 0.0986906886100769, 0.271085262298584, 0.12423274666070938, -0.1305091232061386, 0.18298980593681335, -0.1340802162885666, -0.06303829699754715, 0.1856522262096405, 0.2864890396595001, 0.102161705493927, 0.06163296848535538, 0.2571454644203186, -0.001213109353557229, -0.18084083497524261, -0.11531901359558105, -0.058962564915418625, -0.01203934382647276, 0.2518880069255829, 0.06236879527568817, 0.061600226908922195, 0.2276131808757782, -0.23241572082042694, 0.2382321059703827, -0.21075698733329773, -0.0468839667737484, -0.1433703899383545, -0.14399923384189606, 0.1012151688337326, 0.09311285614967346, -0.041250284761190414, 0.3290237486362457, 0.1305454969406128, 0.010438338853418827, -0.1555003970861435, -0.019493702799081802, -0.041433244943618774, 0.010555921122431755, 0.02217448130249977, -0.08006845414638519, 0.15781784057617188, 0.193000927567482, 0.16947945952415466, 0.2071733921766281, -0.1151248887181282, 0.16135723888874054, -0.015003317967057228, -0.007769822608679533, -0.24995724856853485, 0.1185784712433815, -0.15473225712776184, -0.17568930983543396, 0.003991577308624983, 0.0999695286154747, -0.03740876168012619], [-0.19371801614761353, 0.22237266600131989, -0.28217580914497375, 0.012854572385549545, 0.14283712208271027, 0.2872615158557892, 0.023703770712018013, 0.04780828580260277, 0.03804503008723259, -0.019811533391475677, -0.09589754045009613, -0.13314370810985565, -0.1511380970478058, 0.17912720143795013, -0.05096333473920822, 0.2524889409542084, 0.04197368770837784, -0.20313391089439392, -0.19604142010211945, 0.0687728226184845, -0.3383553922176361, 0.012276425026357174, -0.029767382889986038, 0.02103229984641075, -0.14380444586277008, 0.11074352264404297, 0.1066415086388588, -0.15775369107723236, -0.12812186777591705, -0.11541161686182022, -0.2901380658149719, -0.014697520062327385, -0.037766896188259125, -0.02006485126912594, 0.14200709760189056, 0.15130208432674408, -0.06669618934392929, 0.09632794559001923, -0.1105554923415184, 0.05045904964208603, 0.08442752808332443, -0.3528864085674286, 0.2780173122882843, -0.2276870161294937, -0.1198519766330719, -0.25933337211608887, 0.29526960849761963, -0.3304988741874695, 0.16490483283996582, -0.09436539560556412, -0.0847138911485672, -0.25844132900238037, -0.1487654745578766, 0.03732043877243996, -0.11921364814043045, -0.23963060975074768, 0.03232172876596451, 0.22526191174983978, -0.025166647508740425, 0.10089484602212906, 0.1161184012889862, 0.04085715860128403, -0.01217801496386528, -0.028237739577889442], [0.0998501107096672, -0.002122933743521571, 0.1546896994113922, -0.044309377670288086, 0.14041025936603546, 0.1076272577047348, -0.15532614290714264, 0.08426357060670853, -0.1598026603460312, 0.15893614292144775, -0.06663660705089569, 0.29950156807899475, -0.001034093787893653, -0.13774055242538452, 0.16451464593410492, -0.05186884477734566, -0.014429453760385513, 0.21363037824630737, -0.015763774514198303, -0.07670245319604874, 0.060377657413482666, 0.019057443365454674, -0.03746536374092102, 0.07159658521413803, -0.09684985876083374, 0.23493866622447968, 0.09380904585123062, 0.051959533244371414, -0.2454470992088318, 0.05705222487449646, 0.12852491438388824, 0.1314600557088852, 0.00921798124909401, -0.22806179523468018, -0.013039931654930115, 0.1714150607585907, 0.16462421417236328, 0.19862765073776245, -0.006495745852589607, 0.15096379816532135, 0.09210342168807983, 0.21871113777160645, -0.003180094761773944, 0.08100084215402603, -0.017987653613090515, 0.05618573725223541, 0.15423999726772308, 0.0893510952591896, 0.031030604615807533, 0.08321920782327652, 0.21807478368282318, 0.055167995393276215, 0.21065059304237366, 0.23162920773029327, 0.28271618485450745, 0.1004943698644638, -0.10639014840126038, -0.12821444869041443, -0.11988697946071625, -0.03154473751783371, -0.04204998165369034, -0.13917487859725952, -0.007461141794919968, 0.005829960573464632], [-0.10712849348783493, 0.10327981412410736, -0.015339487232267857, -0.09569471329450607, 0.024556342512369156, 0.22771573066711426, -0.02780342847108841, 0.1403011828660965, -0.09073201566934586, 0.033575162291526794, 0.15647372603416443, -0.1214652955532074, -0.06758787482976913, 0.12226182222366333, -0.2596980035305023, -0.22779560089111328, 0.005511051509529352, -0.14657172560691833, -0.03986874595284462, -0.01567036658525467, -0.09079214930534363, -0.11129671335220337, 0.10431124269962311, 0.1428804099559784, 0.026670066639780998, -0.08055752515792847, 0.08439236879348755, -0.2873995006084442, -0.0984693169593811, -0.3488428592681885, -0.2869308590888977, -0.016471901908516884, -0.05722496658563614, -0.07453026622533798, 0.11159420758485794, -0.06446975469589233, 0.27089637517929077, -0.17608994245529175, -0.23548325896263123, 0.08607985079288483, -0.07614877074956894, -0.3075701892375946, 0.10283768177032471, -0.05857537314295769, -0.021747469902038574, -0.12077415734529495, 0.29573559761047363, -0.3088984787464142, 0.13174806535243988, -0.23609162867069244, -0.41980841755867004, 0.1513364613056183, -0.09953417629003525, -0.06745067983865738, -0.1541183888912201, -0.20405569672584534, 0.006837958004325628, -0.057379841804504395, 0.1371278017759323, -0.1684245765209198, -0.06690676510334015, -0.21026967465877533, -0.19635413587093353, -0.09027544409036636], [-0.07472560554742813, 0.10812675207853317, 0.20472337305545807, -0.1857522428035736, -0.20923711359500885, -0.11902865767478943, 0.16597433388233185, -0.14004643261432648, -0.2006436586380005, 0.09359893947839737, 0.041807934641838074, 0.2237706482410431, 0.26652655005455017, -0.17148084938526154, 0.04423991218209267, -0.05333276838064194, -0.27070504426956177, -0.010130047798156738, 0.2362109273672104, 0.07676390558481216, 0.09762641042470932, 0.01019532885402441, -0.14342635869979858, -0.03329197317361832, -0.20176537334918976, 0.1601201742887497, 0.1581791788339615, 0.3252198398113251, 0.08644070476293564, 0.21965107321739197, 0.2213761806488037, 0.10566927492618561, 0.22602665424346924, -0.07265550643205643, 0.12842126190662384, -0.07747915387153625, -0.06965658068656921, -0.0873514711856842, 0.23314225673675537, 0.02282954566180706, 0.23763924837112427, 0.33724889159202576, -0.1282549649477005, -0.16879333555698395, 0.05371679365634918, -0.08277153223752975, -0.0058231716975569725, 0.1300700604915619, -0.26625391840934753, 0.061150770634412766, 0.04749041423201561, -0.051469821482896805, 0.2800622582435608, 0.022248445078730583, 0.24070848524570465, 0.37000107765197754, -0.03057003580033779, -0.16825130581855774, -0.08378049731254578, -0.08031412959098816, 0.00854321289807558, 0.08304055780172348, -0.13663284480571747, -0.1301688402891159], [0.048044465482234955, -0.10435152798891068, 0.0015472117811441422, 0.18733364343643188, -0.06465786695480347, 0.18799550831317902, 0.10369669646024704, 0.08669489622116089, -0.31879767775535583, 0.015645166859030724, -0.12113460898399353, 0.4448765218257904, 0.24476228654384613, -0.0703042671084404, 0.21971644461154938, -0.011559995822608471, -0.08170230686664581, -0.0735308825969696, 0.09332185238599777, 0.19170741736888885, 0.10645949840545654, 0.07378888130187988, -0.09394123405218124, 0.022826997563242912, 0.03045112080872059, 0.03609145060181618, -0.218752920627594, 0.2143862396478653, -0.04658089950680733, 0.043978575617074966, 0.18985649943351746, 0.02942676655948162, 0.12600675225257874, 0.19572672247886658, -0.14753524959087372, 0.022194981575012207, -0.09449145942926407, 0.025200078263878822, 0.05261785537004471, -0.06024755910038948, 0.14854365587234497, 0.03936179727315903, -0.1658439040184021, -0.1175127625465393, -0.23938524723052979, -0.16984955966472626, -0.1915961652994156, 0.24463395774364471, -0.2641929090023041, -0.11295858770608902, -0.0767287090420723, -0.086949422955513, 0.13711565732955933, -0.014393930323421955, 0.4030230641365051, 0.11506237834692001, 0.13327616453170776, -0.1290551871061325, 0.14468064904212952, 0.0850883349776268, -0.04157324507832527, -0.0048727067187428474, 0.059672579169273376, -0.11094527691602707], [-0.22010520100593567, -0.1796528398990631, -0.05087874457240105, 0.2530316710472107, -0.18859761953353882, -0.02917434461414814, 0.2584531903266907, -0.021232040598988533, 0.03315829113125801, -0.02719397470355034, 0.023201046511530876, -0.22760111093521118, 0.028933245688676834, 0.0571209080517292, -0.27409809827804565, -0.10166526585817337, 0.18428246676921844, -0.05996628478169441, -0.14634887874126434, -0.17589980363845825, -0.35288703441619873, -0.004747556522488594, 0.18093359470367432, 0.2053862363100052, -0.058896709233522415, -0.29309940338134766, 0.07654556632041931, -0.36924996972084045, 0.07536476850509644, 0.0008338827174156904, -0.15767227113246918, 0.15005183219909668, -0.2839614748954773, 0.07444626092910767, 0.014248641207814217, -0.2357724905014038, -0.074474036693573, 0.25778689980506897, -0.2791680693626404, -0.1100107729434967, -0.43688398599624634, -0.16673654317855835, 0.30726802349090576, -0.13925641775131226, 0.1751316338777542, 0.07182600349187851, 0.16043485701084137, -0.35831743478775024, 0.058236151933670044, -0.0767485573887825, -0.17381551861763, 0.20731011033058167, -0.3498968482017517, -0.013781745918095112, -0.23475149273872375, -0.125356525182724, 0.111899234354496, 0.06842409819364548, -0.03623497113585472, -0.17447248101234436, 0.025515323504805565, -0.06122732162475586, 0.12149534374475479, 0.04480304196476936], [0.21722421050071716, -0.22936370968818665, 0.029390593990683556, 0.031553126871585846, -0.03904591128230095, -0.1440679430961609, 0.03219638392329216, 0.21724456548690796, -0.04876450449228287, 0.22868023812770844, 0.02666333131492138, 0.27085161209106445, 0.2669249176979065, 0.010171530768275261, 0.12880614399909973, 0.020093722268939018, -0.10216233134269714, 0.16886314749717712, 0.15027661621570587, 0.05802584066987038, 0.04697219654917717, -0.27940255403518677, -0.012551911175251007, -0.25123873353004456, 0.08679996430873871, -0.13771332800388336, 0.018704846501350403, 0.12463109940290451, 0.014833536930382252, 0.3093000054359436, 0.30245304107666016, -0.07446349412202835, 0.24629642069339752, -0.09419555217027664, -0.15184269845485687, -0.2291412055492401, -0.038953784853219986, 0.04383895918726921, 0.08155051618814468, 0.049296386539936066, 0.19452987611293793, 0.06450340151786804, 0.16059203445911407, 0.06384995579719543, -0.06503554433584213, -0.044209979474544525, 0.18793366849422455, 0.3377312123775482, -0.013819205574691296, 0.19339507818222046, 0.04260239750146866, -0.061767760664224625, 0.21125411987304688, -0.15092813968658447, 0.36900800466537476, 0.2666427195072174, 0.1288127601146698, 0.17835508286952972, -0.007514473050832748, 0.048880625516176224, 0.09666313230991364, -0.06582966446876526, -0.08627969026565552, 0.007670050486922264], [-0.21302500367164612, -0.1876647025346756, -0.1358310878276825, -0.09078341722488403, -0.2735581696033478, -0.14836977422237396, -0.0390518493950367, 0.13945123553276062, -0.08330860733985901, -0.05375967547297478, -0.08903954178094864, -0.15825165808200836, -0.1966995745897293, -0.002788951387628913, -0.20368918776512146, 0.17981122434139252, -0.1734667420387268, -0.3768283426761627, -0.2796895503997803, -0.33467525243759155, -0.33225515484809875, 0.017138471826910973, -0.08740377426147461, -0.18323218822479248, 0.08824559301137924, -0.016262713819742203, -0.26840928196907043, 0.06949203461408615, 0.09559524059295654, -0.044516224414110184, -0.21514944732189178, 0.062422975897789, -0.3944605886936188, 0.15243355929851532, 0.34680792689323425, -0.051793165504932404, 0.11361603438854218, -0.07494165003299713, -0.030090948566794395, 0.17075055837631226, -0.06043648347258568, -0.08894756436347961, 0.09184545278549194, -0.1707131713628769, 0.08988300710916519, -0.1623513400554657, -0.0011055403156206012, -0.2261747568845749, 0.07634027302265167, 0.1204972192645073, -0.054204199463129044, 0.034339528530836105, -0.3997077941894531, -0.1851523518562317, -0.27232083678245544, 0.011318575590848923, -0.2599639296531677, 0.17905659973621368, 0.01435062289237976, 0.3127375543117523, 0.026245299726724625, -0.19582675397396088, 0.021597350016236305, -0.16342812776565552], [0.16144335269927979, 0.19597718119621277, 0.19185930490493774, -0.02925732359290123, -0.2295350581407547, -0.065752774477005, 0.008216996677219868, -0.277018666267395, -0.2885487973690033, -0.037838470190763474, -0.1195509135723114, 0.29582417011260986, 0.07753262668848038, 0.026325123384594917, 0.15130864083766937, -0.11772952973842621, 0.0285281240940094, 0.1383608877658844, -0.04773852974176407, 0.14485447108745575, 0.3245106637477875, -0.07917698472738266, 0.1373249739408493, -0.25266730785369873, -0.003754017874598503, -0.019452610984444618, -0.056391824036836624, 0.1247897669672966, 0.03711402043700218, 0.25039198994636536, 0.06174898520112038, -0.10252067446708679, -7.972017192514613e-05, 0.09792859852313995, 0.1203203871846199, 0.15946997702121735, -0.19873657822608948, 0.0700608491897583, 0.17114940285682678, -0.007591875270009041, 0.0017736488953232765, 0.10221581906080246, 0.003015891183167696, -0.0026602488942444324, -0.12290158867835999, 0.26475435495376587, 0.12222091853618622, 0.02296227030456066, -0.10511155426502228, 0.08787132799625397, 0.16871482133865356, 0.009456912986934185, 0.1909852921962738, 0.07232405245304108, 0.21452796459197998, -0.12074615061283112, -0.09033723920583725, -0.09924117475748062, 0.2642390727996826, -0.05359552800655365, -0.0657409206032753, -0.026582909747958183, 0.09710948914289474, 0.1906750649213791], [-0.18603910505771637, -0.027344290167093277, -0.3122234344482422, -0.0299785528331995, -0.014506945386528969, 0.09163615852594376, -0.032692801207304, -0.02401532232761383, -0.002160252071917057, -0.17812570929527283, -0.0010946127586066723, -0.35248175263404846, -0.30897092819213867, -0.10248203575611115, -0.13650347292423248, -0.14263468980789185, 0.19602514803409576, -0.1275414526462555, -0.03565838560461998, -0.2173653393983841, -0.3662761151790619, 0.005636023823171854, 0.20686298608779907, 0.07122394442558289, 0.2355443686246872, -0.21005724370479584, 0.2675313949584961, -0.1540413796901703, -0.16725941002368927, 0.10832121223211288, -0.15950655937194824, 0.07929160445928574, -0.21774490177631378, 0.1436992734670639, 0.09451084583997726, 0.28295937180519104, 0.03171654790639877, -0.017205102369189262, -0.008774266578257084, -0.029358135536313057, -0.24475829303264618, -0.2808108627796173, -0.08852671831846237, -0.11028081923723221, 0.09862525761127472, -0.046445220708847046, -0.05837063118815422, -0.284692645072937, -0.036954592913389206, -0.14662480354309082, -0.33939898014068604, 0.26473113894462585, 0.016095468774437904, 0.11993257701396942, -0.10564883053302765, -0.21041159331798553, 0.26061299443244934, 0.23282290995121002, -0.16253440082073212, 0.2948843240737915, 0.028267381712794304, 0.1846540868282318, 0.06724457442760468, 0.09771904349327087], [0.15692751109600067, 0.01874033361673355, -0.0020097936503589153, 0.030258076265454292, -0.061897192150354385, -0.08137936145067215, -0.049792494624853134, -0.07484431564807892, 0.08545342087745667, 0.01647374965250492, 0.14625439047813416, -0.2654363811016083, -0.00780803756788373, -0.002741508651524782, 0.018172424286603928, 0.1613949090242386, 0.07004807889461517, -0.23811960220336914, -0.003783108899369836, -0.15564531087875366, -0.03771892935037613, -0.07673657685518265, 0.2170391082763672, -0.0980885699391365, -0.1539946049451828, -0.1637061983346939, -0.10454375296831131, -0.08316925168037415, -0.03177875280380249, -0.25198179483413696, -0.22804288566112518, 0.131134495139122, -0.18587936460971832, -0.12193476408720016, 0.24301905930042267, 0.055226732045412064, 0.22041882574558258, 0.03610476851463318, 0.07476113736629486, -0.026263071224093437, -0.1693948358297348, -0.16307710111141205, 0.0037182217929512262, 0.11022298783063889, 0.12986896932125092, 0.05473126471042633, -0.2750421464443207, -0.019564727321267128, -0.06777873635292053, -0.2822057008743286, -0.18234241008758545, 0.00867676455527544, 0.13041868805885315, 0.16981728374958038, -0.11457017809152603, 0.028824158012866974, 0.06724194437265396, -0.12782323360443115, 0.16989874839782715, -0.06722886115312576, 0.25706881284713745, -0.1046360582113266, -0.03678127005696297, 0.21278056502342224], [-0.2535039186477661, -0.17132548987865448, 0.03176381438970566, 0.10347006469964981, 0.16689574718475342, 0.1428985446691513, 0.1834874302148819, 0.034691620618104935, 0.14615406095981598, 0.11361026763916016, 0.19921940565109253, 0.03991582617163658, -0.2503840923309326, 0.06751316040754318, -0.25471341609954834, 0.11879907548427582, -0.2467295378446579, -0.3166631758213043, -0.0702555775642395, -0.28575044870376587, -0.09310507029294968, -0.1264238804578781, -0.11752869188785553, 0.07719389349222183, 0.0674687847495079, 0.09261330962181091, -0.011795016005635262, -0.31155306100845337, -0.07328412681818008, -0.20673440396785736, 0.003482653060927987, 0.09049669653177261, -0.3344130516052246, 0.18169128894805908, 0.03239790350198746, 0.08228864520788193, 0.004741067066788673, 0.11242955178022385, 0.20386725664138794, -0.038986098021268845, -0.12437388300895691, -0.0710325837135315, 0.16588780283927917, 0.23142017424106598, -0.17042671144008636, -0.0343942865729332, 0.11576107144355774, -0.15315812826156616, 0.11012625694274902, -0.208348348736763, -0.3671131432056427, -0.15573953092098236, -0.15884260833263397, -0.008617074228823185, -0.21814373135566711, -0.2695717215538025, 0.07670816779136658, 0.04088624194264412, -0.12354907393455505, -0.08623939007520676, -0.017852507531642914, 0.10020483285188675, 0.08579234778881073, 0.15488561987876892], [-0.3391181230545044, 0.05682463198900223, -0.24072155356407166, 0.14388729631900787, 0.005455847829580307, 0.10779824107885361, 0.0935613363981247, 0.043258581310510635, 0.17976650595664978, 0.05468791723251343, 0.11917801946401596, -0.23258280754089355, -0.3316178619861603, -0.07129345089197159, -0.29111218452453613, 0.05643182247877121, 0.007564477622509003, -0.25918710231781006, 0.059929586946964264, -0.09348250925540924, -0.16644002497196198, 0.020730270072817802, -0.10122682899236679, 0.11164512485265732, 0.04864266887307167, -0.23284457623958588, -0.1165025532245636, -0.29426223039627075, -0.02776067703962326, -0.11689627170562744, -0.15621042251586914, -0.0995873436331749, -0.23869331181049347, -0.026336388662457466, -0.04158463329076767, 0.06560472398996353, -0.14056488871574402, -0.12476711720228195, 0.007774232886731625, -0.08656231313943863, -0.009205218404531479, -0.28314831852912903, 0.011012834496796131, 0.1296132653951645, -0.12633036077022552, -0.021782491356134415, 0.03975534439086914, -0.3111012578010559, 0.045490194112062454, -0.2228335440158844, -0.38612353801727295, -0.018336422741413116, 0.039939384907484055, 0.08301763236522675, -0.15536925196647644, -0.08536931872367859, 0.01780123822391033, -0.16898870468139648, -0.08347836881875992, -0.06525082141160965, 0.14657483994960785, 0.16561880707740784, -0.005928007885813713, 0.09280272573232651], [0.11745801568031311, -0.10699699819087982, 0.09979447722434998, -0.14451821148395538, 0.02372908592224121, -0.1365157514810562, 0.047438912093639374, 0.06427842378616333, -0.1107417643070221, -0.03355557471513748, -0.06454084813594818, 0.09347722679376602, 0.317200243473053, -0.178524449467659, 0.2235051542520523, 0.13851724565029144, -0.026275644078850746, 0.41013169288635254, 0.18340979516506195, 0.23658035695552826, 0.1937825083732605, -0.07991603761911392, -0.1815338283777237, -0.07506271451711655, -0.0753774642944336, 0.027455830946564674, -0.1975020468235016, 0.11598338931798935, 0.012881448492407799, 0.19532127678394318, 0.20656481385231018, -0.13584309816360474, -0.009619471617043018, -0.020563587546348572, -0.1426471769809723, -0.06299688667058945, 0.05733191967010498, -0.023341761901974678, 0.15663421154022217, -0.02093474566936493, 0.22122366726398468, 0.2413041889667511, 0.1956239938735962, 0.0027039898559451103, -0.04385524243116379, 0.00018555122369434685, 0.004469392821192741, 0.24583682417869568, 0.057197313755750656, 0.21621066331863403, 0.3827682137489319, -0.06858130544424057, 0.17404669523239136, -0.13340720534324646, 0.09955015033483505, 0.021890463307499886, 0.18874534964561462, -0.08495787531137466, -0.0260830819606781, -0.0007897625328041613, -0.2696976959705353, -0.1848938912153244, 0.1383364200592041, 0.04537982866168022], [0.15508556365966797, -0.0523100346326828, 0.0062049743719398975, -0.2583675980567932, 0.05662817507982254, 0.14990048110485077, -0.021885903552174568, 0.14718279242515564, -0.13426566123962402, -0.02196824550628662, 0.03764832764863968, 0.1503281593322754, 0.12875479459762573, -0.29815244674682617, 0.14845244586467743, -0.14990612864494324, 0.08354078978300095, 0.3854147493839264, 0.34286317229270935, 0.17476016283035278, 0.029287904500961304, -0.14789782464504242, 0.023104960098862648, 0.07326922565698624, -0.09375572204589844, 0.15957604348659515, -0.0902876928448677, 0.37855836749076843, 0.17196208238601685, 0.20893463492393494, 0.17858824133872986, -0.11340980231761932, 0.3354783356189728, -0.22510333359241486, -0.17100059986114502, -0.10652860254049301, -0.10559455305337906, -0.22645150125026703, 0.10583727061748505, -0.2325226217508316, -0.042738065123558044, 0.12184897065162659, -0.08533735573291779, -0.0038887918926775455, -0.05403606593608856, 0.06529831141233444, -0.3246520757675171, 0.023603593930602074, 0.09194464236497879, -0.08946390450000763, 0.20301026105880737, 0.164362370967865, 0.18363799154758453, -0.034531690180301666, 0.1277315318584442, -0.05331951752305031, -0.04909081012010574, 0.01976408064365387, 0.05351429060101509, -0.15056286752223969, -0.04662987217307091, -0.2598057687282562, -0.1066412478685379, 0.06351396441459656], [0.015822457149624825, 0.05712919682264328, 0.06914401054382324, 0.344207763671875, -0.1048261821269989, 0.2508516311645508, -0.0702877789735794, -0.1001073345541954, 0.0474967360496521, -0.10944809019565582, 0.045175764709711075, -0.23161594569683075, -0.22279754281044006, 0.11768938601016998, -0.06547416746616364, -0.04998447746038437, 0.2004716396331787, -0.0894210934638977, -0.32783061265945435, -0.04997005686163902, -0.09989834576845169, -0.16497543454170227, -0.2444281280040741, 0.04539601504802704, 0.07501842826604843, 0.15945316851139069, -0.08845643699169159, -0.2144826352596283, 0.14157937467098236, -0.07870969921350479, -0.1714332550764084, -0.07496298104524612, -0.24052764475345612, -9.849658817984164e-05, -0.022247249260544777, 0.04686518758535385, -0.22060662508010864, -0.07344657182693481, -0.23340807855129242, -0.13250145316123962, -0.23876193165779114, -0.2796936333179474, 0.15256430208683014, -0.1784980744123459, -0.03858316317200661, 0.2019193172454834, 0.028199851512908936, -0.40068063139915466, -0.07354042679071426, -0.13264207541942596, -0.1571134775876999, -0.14849649369716644, -0.2902488708496094, 0.11910711228847504, -0.24995072185993195, -0.2594398558139801, 0.026167092844843864, 0.19745668768882751, -0.09042327851057053, -0.040519244968891144, 0.2528112232685089, -0.1986839771270752, -0.00024902293807826936, -0.033297814428806305], [-0.18038807809352875, 0.036047082394361496, -0.12811526656150818, 0.08787884563207626, -0.21945542097091675, 0.10830646008253098, -0.13401193916797638, 0.022357812151312828, -0.027538083493709564, 0.15757353603839874, 0.011080991476774216, -0.3593878149986267, -0.130233496427536, 0.13454557955265045, -0.12001004070043564, 0.011656822636723518, -0.06261833012104034, -0.3543124794960022, -0.1265571117401123, -0.1562105119228363, -0.07809518277645111, -0.19635753333568573, 0.023600945249199867, -0.13672178983688354, -0.2010606825351715, -0.043900974094867706, -0.1776813268661499, -0.1786452829837799, 0.25722697377204895, -0.3362567722797394, -0.07519711554050446, 0.02226470783352852, -0.29542630910873413, -0.17357510328292847, 0.010784130543470383, 0.04898766055703163, -0.27903684973716736, 0.09412361681461334, 0.0690113976597786, -0.036058638244867325, -0.06333106756210327, 0.10066786408424377, 0.09351242333650589, 0.13022562861442566, 0.0600641667842865, 0.0322788842022419, -0.09326165914535522, -0.21654096245765686, -0.09415773302316666, -0.11133373528718948, -0.15925490856170654, -0.0854576975107193, -0.1928885132074356, 0.056046921759843826, -0.06412248313426971, -0.2843470871448517, 0.13891799747943878, 0.3050345182418823, 0.14517538249492645, 0.06412826478481293, 0.019566819071769714, -0.07357145100831985, 0.04003104940056801, 0.08348361402750015], [0.03607479855418205, 0.0071401577442884445, 0.1877138465642929, 0.08060802519321442, 0.24644897878170013, -0.07883086800575256, 0.12717647850513458, -0.01606026105582714, -0.08387330919504166, -0.07061468064785004, -0.10529007017612457, 0.2621636390686035, 0.17447106540203094, 0.19255748391151428, 0.17925406992435455, 0.11768057942390442, -0.18894600868225098, 0.3128005564212799, 0.14693768322467804, 0.3923896253108978, 0.3038361668586731, -0.08782496303319931, 0.006239856127649546, -0.1477728635072708, -0.09167986363172531, 0.2567504048347473, 0.23746845126152039, -0.08354214578866959, 0.11982306092977524, 0.17189612984657288, 0.09280066192150116, -0.22433142364025116, 0.14884908497333527, -0.11021078377962112, 0.16401275992393494, 0.001742473803460598, -0.026601141318678856, -0.06475263833999634, 0.0183308944106102, 0.17342939972877502, 0.3695911169052124, 0.4194665849208832, 0.17994612455368042, 0.10405433923006058, -0.09771560877561569, -0.011969422921538353, -0.22078709304332733, 0.04045163094997406, 0.001767331501469016, 0.0011963428696617484, 0.1944219470024109, -0.10812469571828842, 0.17666363716125488, -0.0562562569975853, -0.03724117577075958, 0.13046637177467346, -0.08775682002305984, -0.2889403700828552, 0.01870742067694664, 0.0020839166827499866, -0.10602167993783951, -0.08022352308034897, 0.071382537484169, -0.10276700556278229], [0.0569700263440609, -0.11410579085350037, 0.27681833505630493, -0.10428164154291153, -0.08891165256500244, 0.08955086767673492, -0.08718040585517883, -0.08670904487371445, -0.2010875791311264, 0.06482400000095367, -0.3060411214828491, 0.2522597014904022, 0.2479153424501419, 0.07250689715147018, 0.1087879166007042, -0.2331923395395279, -0.24093036353588104, 0.1257607340812683, 0.12471328675746918, 0.08407443761825562, 0.13324764370918274, -0.18310552835464478, 0.17704972624778748, -0.16433627903461456, 0.09968043863773346, 0.11401735991239548, 0.03164753317832947, 0.3337923586368561, -0.07238887995481491, 0.10459291934967041, 0.09043669700622559, -0.19432736933231354, 0.16281576454639435, -0.1718246042728424, -0.3500560522079468, 0.08532409369945526, 0.0763433501124382, 0.00842883437871933, -0.021973274648189545, -0.09205115586519241, 0.12289538234472275, 0.07145128399133682, 0.029314516112208366, -0.14097055792808533, -0.27983513474464417, -0.11652245372533798, -0.023364445194602013, 0.04204673320055008, -0.3410639762878418, -0.08010835200548172, 0.12504731118679047, -0.16823796927928925, 0.25915080308914185, -0.2580162584781647, 0.24243706464767456, -0.046101707965135574, 0.05061875656247139, 0.21969226002693176, -0.10409753769636154, 0.024494219571352005, -0.011060775257647038, 0.006503735203295946, -0.15800601243972778, 0.059127163141965866], [0.050966646522283554, 0.04531538113951683, -0.17049048840999603, -0.11502169817686081, 0.050004176795482635, -0.09502118080854416, 0.14526116847991943, 0.19982199370861053, 0.025647709146142006, -0.022494250908493996, 0.08230269700288773, -0.1621968150138855, -0.128384068608284, 0.039734888821840286, -0.17564895749092102, -0.037665531039237976, 0.11693231761455536, -0.13164469599723816, -0.2038682997226715, -0.12629275023937225, -0.09395585209131241, 0.01464095525443554, -0.21361099183559418, -0.0632091537117958, 0.24671635031700134, -0.23369359970092773, 0.0711318626999855, -0.26805734634399414, 0.1420576125383377, -0.03809439018368721, -0.31161221861839294, -0.05367056280374527, -0.171092689037323, 0.11337324231863022, -0.1959550678730011, -0.06052844971418381, 0.10252168774604797, -0.22070445120334625, 0.029774710536003113, -0.16551116108894348, -0.1688554286956787, -0.08454477041959763, -0.06056990101933479, 0.11137478798627853, 0.020397406071424484, -0.12287382036447525, 0.03288871422410011, -0.11553151160478592, -0.1923360675573349, -0.22528761625289917, -0.06731092184782028, 0.031738318502902985, -0.2072770893573761, -0.10805909335613251, -0.02123294770717621, -0.04321487247943878, -0.17099565267562866, -0.1829691082239151, 0.06061340868473053, -0.0906401202082634, 0.027134327217936516, 0.014166134409606457, 0.09154721349477768, -0.05836523696780205], [0.049887802451848984, 0.11335860937833786, 0.03675715625286102, 0.05340782552957535, -0.1308819055557251, -0.07737547904253006, -0.0678577795624733, -0.2464052140712738, -0.25926631689071655, -0.09530048072338104, 0.09909161925315857, 0.10360144823789597, 0.33260953426361084, -0.0376800037920475, 0.3101664185523987, -0.06187870353460312, 0.049481648951768875, 0.4020196795463562, 0.20877009630203247, -0.04646243155002594, 0.0705624371767044, -0.11401495337486267, -0.12823235988616943, -0.01907350681722164, -0.002880739513784647, 0.038325950503349304, -0.1872025430202484, 0.1996878981590271, -0.24707554280757904, 0.12017607688903809, 0.3821353614330292, -0.12482569366693497, 0.05754173919558525, -0.1256175935268402, -0.02115774340927601, 0.14349065721035004, -0.08266311138868332, 0.16832083463668823, 0.000668304564896971, 0.17108875513076782, 0.19710320234298706, 0.0775783434510231, -0.14264380931854248, -0.11439059674739838, 0.018391231074929237, -0.0995270162820816, -0.11247704178094864, 0.0178359542042017, -0.129666268825531, 0.1354561150074005, 0.23341497778892517, -0.052206944674253464, -0.009329897351562977, -0.036700885742902756, 0.18757177889347076, 0.06853228807449341, 0.11975009739398956, -0.20676693320274353, -0.16211891174316406, 0.030845612287521362, -0.2208026498556137, 0.20636112987995148, 0.18782079219818115, -0.03522738441824913], [-0.04281904175877571, -0.14100900292396545, 0.09218227118253708, -0.02954288385808468, -0.18629053235054016, 0.15856902301311493, -0.12179554998874664, -0.302778035402298, 0.029691392555832863, 0.039396680891513824, -0.12456540763378143, 0.11425858736038208, 0.358719140291214, -0.08585216104984283, 0.20239780843257904, 0.19456784427165985, -0.15257927775382996, 0.07313787192106247, 0.1779908388853073, 0.3235972225666046, 0.14598800241947174, 0.14982718229293823, 0.2435348480939865, 0.01889006979763508, -0.03430764749646187, 0.09344189614057541, -0.07607275247573853, 0.3465796709060669, -0.08362598717212677, 0.26093074679374695, 0.14110641181468964, -0.10849674791097641, 0.33286991715431213, -0.026532569900155067, -0.10424058139324188, 0.018105940893292427, -0.01984574645757675, -0.1365486979484558, 0.041029248386621475, 0.018600761890411377, 0.18304099142551422, 0.18786826729774475, -0.11622697860002518, 0.00461815157905221, 0.13095790147781372, 0.012079411186277866, -0.016193371266126633, -0.046783704310655594, 0.05311373621225357, 0.21264101564884186, 0.3970835208892822, -0.24725215137004852, 0.009147325530648232, -0.031594060361385345, 0.13978397846221924, 0.20903469622135162, -0.13366514444351196, -0.19026875495910645, 0.0158099178224802, -0.08226229250431061, -0.02602323144674301, -0.12104429304599762, 0.12226555496454239, 0.24643734097480774], [-0.017673764377832413, 0.1686948984861374, 0.06388941407203674, -0.029387135058641434, 0.009199433028697968, 0.19601988792419434, 0.04295610636472702, 0.28220483660697937, 0.06860701739788055, -0.023131534457206726, 0.20477980375289917, 0.16037458181381226, -0.13793499767780304, 0.17652903497219086, -0.20420268177986145, -0.19802351295948029, -0.10092209279537201, -0.1299702674150467, -0.12742921710014343, 0.0884498581290245, 0.08611159026622772, 0.09389762580394745, 0.09737555682659149, 0.16257771849632263, -0.018181823194026947, 0.1080944687128067, 0.07379668205976486, 0.018834831193089485, 0.1521860957145691, -0.019154492765665054, -0.06256092339754105, -0.029866056516766548, 0.16173262894153595, 0.0420592837035656, 0.2385619729757309, -0.12051136791706085, -0.22897155582904816, -0.25112608075141907, -0.08030836284160614, -0.12039878964424133, -0.11988775432109833, 0.10939887911081314, -0.033706262707710266, 0.049266088753938675, 0.09590701013803482, 0.23679563403129578, 0.1097647100687027, 0.1114901751279831, -0.12515635788440704, 0.04413287341594696, -0.08497874438762665, -0.12925206124782562, 0.16968995332717896, -0.03580274060368538, -0.06408050656318665, -0.06403037905693054, -0.026296386495232582, 0.27474409341812134, 0.20334602892398834, 0.03624970093369484, 0.0329660065472126, -0.12347699701786041, -0.012434891425073147, 0.022442743182182312], [0.01902231015264988, -0.1632148176431656, 0.04297739267349243, 0.0065576606430113316, 0.20664699375629425, 0.28080257773399353, 0.001188745372928679, 0.05994034558534622, 0.04518383368849754, 0.03884664922952652, -0.057597801089286804, 0.0444985069334507, -0.1660373955965042, 0.0980248749256134, -0.2302645593881607, 0.23491621017456055, -0.06287354230880737, -0.07956341654062271, -0.1369161754846573, -0.10566303133964539, -0.05835815519094467, 0.04671093821525574, 0.13873784244060516, -0.11426474899053574, 0.14609408378601074, -0.15857915580272675, -0.033982329070568085, -0.1376892626285553, 0.01919180154800415, 0.0015081310411915183, -0.11993350833654404, 0.2153012901544571, 0.04858294874429703, 0.11025211215019226, 0.2583022713661194, -0.007620896678417921, 0.18712709844112396, -0.08425891399383545, -0.04333566501736641, 0.24917106330394745, -0.08264688402414322, -0.05472768098115921, -0.08682989329099655, 0.08752073347568512, 0.04946787282824516, -0.08326851576566696, 0.20863460004329681, -0.23485082387924194, 0.207093745470047, -0.08285152912139893, 0.13338041305541992, 0.04024064540863037, -0.10189171135425568, 0.05342724546790123, -0.051906391978263855, 0.015110144391655922, -0.2719695270061493, 0.03555518016219139, -0.23000089824199677, 0.06050743907690048, -0.09386269003152847, -0.025971511378884315, 0.028846804052591324, -0.17680802941322327], [-0.16391406953334808, 0.13069984316825867, -0.029805848374962807, 0.15693289041519165, 0.16483786702156067, 0.019054466858506203, 0.1155264601111412, 0.24373282492160797, 0.03146595507860184, 0.06919669359922409, -0.08664017170667648, -0.08754244446754456, -0.16546471416950226, 0.044477429240942, -0.3358115553855896, -0.22762134671211243, 0.08778825402259827, -0.2726726233959198, 0.0041820816695690155, -0.2753378748893738, -0.2647225260734558, 0.14429986476898193, -0.10860394686460495, 0.3317803144454956, -0.17176562547683716, -0.1196800246834755, 0.06189835071563721, -0.1092018336057663, -0.2289721518754959, -0.04590780660510063, -0.07127784937620163, 0.061160359531641006, -0.34059372544288635, 0.060001958161592484, -0.08173800259828568, -0.006411310285329819, 0.052792027592659, -0.025820765644311905, -0.0013708443148061633, 0.02674848772585392, -0.22373643517494202, -0.29874563217163086, -0.17684850096702576, 0.027300069108605385, -0.014133955352008343, -0.005189209710806608, -0.08251039683818817, -0.17565317451953888, 0.058191101998090744, 0.010817257687449455, -0.06681104749441147, -0.07439573854207993, -0.0032271507661789656, 0.03855103626847267, -0.39063510298728943, -0.2099461406469345, -0.06927528232336044, -0.11147990077733994, -0.05532308667898178, -0.12935814261436462, -0.08422639966011047, -0.16912385821342468, -0.013133022002875805, 0.06570935249328613], [0.18829433619976044, -0.18221019208431244, 0.013851216062903404, -0.20937108993530273, -0.1392081379890442, -0.18855130672454834, 0.021481143310666084, 0.09980016201734543, 0.06416764855384827, 0.07211453467607498, -0.14912493526935577, 0.23756535351276398, 0.09241210669279099, -0.1399284154176712, 0.36049312353134155, 0.09006629884243011, 0.04228166863322258, 0.2189137041568756, 0.12022820115089417, 0.03323821723461151, 0.2517887353897095, -0.10916107147932053, 0.0830620601773262, 0.15308398008346558, 0.013612679205834866, 0.2953626215457916, 0.06368120014667511, 0.027292409911751747, 0.08890888839960098, 0.33787012100219727, 0.13304655253887177, 0.10648630559444427, 0.18494436144828796, -0.07439396530389786, -0.04032318666577339, 0.130936399102211, -0.18137943744659424, -0.0944034680724144, 0.1749715954065323, 0.049195632338523865, 0.2569262385368347, 0.05507863312959671, -0.11577200144529343, 0.12775230407714844, 0.010305413976311684, 0.05956157296895981, -0.27681195735931396, -0.03511111065745354, 0.017720716074109077, -0.12031960487365723, 0.22858841717243195, 0.1350092738866806, 0.04308079555630684, -0.12462439388036728, 0.33331552147865295, 0.14665445685386658, 0.2723810076713562, -0.1563810557126999, 0.1297311931848526, 0.08839625120162964, -0.17391332983970642, 0.1393016129732132, -0.22626890242099762, 0.019305024296045303], [0.038170211017131805, -0.054682984948158264, -0.1232299953699112, 0.06410208344459534, 0.03782041370868683, -0.02835228480398655, 0.23986482620239258, 0.08657032251358032, 0.109820157289505, -0.05245909467339516, -0.1433739960193634, -0.09286253899335861, -0.4131033718585968, -0.004496116191148758, -0.19533497095108032, -0.01078052818775177, 0.14368762075901031, 0.022964145988225937, -0.1853642761707306, -0.1506814956665039, -0.06887026131153107, 0.13609248399734497, -0.13437038660049438, -0.0011200045701116323, 0.18831917643547058, -0.012974362820386887, -0.03849666938185692, 0.016309969127178192, 0.0418059267103672, 0.11308329552412033, 0.0949750766158104, 0.17989465594291687, -0.4278640151023865, -0.19851239025592804, 0.016001081094145775, -0.03114461340010166, 0.20815707743167877, -0.08711887896060944, 0.0671737790107727, -0.039783988147974014, -0.31126755475997925, -0.23357301950454712, 0.10317881405353546, 0.03317034989595413, -0.03455807641148567, -0.1766819804906845, -0.1686553955078125, 0.007552466820925474, 0.1758309006690979, -0.2268916815519333, -0.044047608971595764, 0.013930227607488632, -0.030559951439499855, 0.03077966347336769, -0.12018828094005585, 0.10834968835115433, -0.07768656313419342, 0.12024075537919998, 0.03153320029377937, 0.014248261228203773, 0.012438186444342136, -0.13638627529144287, -0.14281636476516724, -0.10083329677581787], [0.02218833938241005, 0.15338075160980225, 0.08727547526359558, -0.1670869141817093, 0.13672612607479095, 0.13995343446731567, 0.14147783815860748, 0.1558276116847992, 0.04451943561434746, -0.0018842630088329315, -0.04242214560508728, -0.07089442014694214, -0.13988839089870453, 0.22124604880809784, -0.050098784267902374, 0.17643415927886963, 0.10283814370632172, -0.13524176180362701, -0.09948284924030304, -0.3810088336467743, -0.13611578941345215, 0.03069826029241085, 0.04439060017466545, 0.06289205700159073, 0.029438218101859093, 0.016125112771987915, 0.08121029287576675, -0.03429063782095909, -0.025715287774801254, 0.09692762047052383, -0.17345355451107025, 0.0514347068965435, -0.20122066140174866, 0.12948976457118988, 0.00032419158378615975, 0.24065004289150238, -0.01949129067361355, -0.04652509093284607, -0.11222513020038605, 0.1926654428243637, -0.05723407864570618, -0.21050392091274261, -0.08079253882169724, 0.08480952680110931, -0.046766724437475204, 0.1333477795124054, -0.051873475313186646, -0.18816056847572327, -0.04009752348065376, -0.011295768432319164, -0.2010488212108612, -0.16750343143939972, -0.18245521187782288, 0.1507498323917389, -0.0767543762922287, 0.045648593455553055, -0.16611932218074799, -0.17927579581737518, 0.061059921979904175, 0.023673871532082558, -0.13586704432964325, -0.06621348112821579, -0.06897737085819244, 0.20138011872768402], [0.10844149440526962, -0.04260638356208801, 0.09604894369840622, -0.13363951444625854, -0.03457490727305412, 0.05968175455927849, -0.03136729821562767, -0.027473513036966324, 0.12920571863651276, -0.10663378238677979, -0.05855509266257286, 0.26541709899902344, 0.27592742443084717, -0.036500364542007446, 0.19538748264312744, 0.11911746859550476, 0.06950926780700684, -0.11144332587718964, 0.06580309569835663, 0.21564099192619324, 0.2797726094722748, -0.06240995600819588, 0.1766728311777115, -0.12409581243991852, -0.1378484070301056, 0.003387450473383069, 0.20291493833065033, 0.10047648102045059, -0.049402639269828796, 0.24688749015331268, 0.3024921417236328, -0.10509210079908371, -0.10590118914842606, 0.08100397884845734, -0.08980216085910797, -0.0030409125611186028, 0.09615269303321838, -0.11522289365530014, 0.2029900699853897, -0.025288812816143036, 0.386452853679657, 0.24838793277740479, 0.041617732495069504, -0.15956808626651764, -0.005669569596648216, -0.10900086909532547, -0.0616643950343132, 0.1850353628396988, -0.09066487848758698, 0.11910837143659592, 0.08803918212652206, -0.19328579306602478, 0.33947664499282837, -0.05745262652635574, -0.04209757223725319, 0.27443453669548035, -0.1400405466556549, 0.058750662952661514, -0.07799015939235687, 0.05291790887713432, 0.022130895406007767, -0.037338607013225555, 0.04702484980225563, 0.1414027214050293]]}, "dense2": {"bias": [-0.12868981063365936, 0.0, 0.16148345172405243, 0.0, 0.0, 0.0, 0.0, 0.16463646292686462, -0.07280196249485016, -0.06005174294114113, 0.0, 0.0, -0.06005173549056053, -0.06005173176527023, 0.0, 0.0, -0.07572852075099945, 0.0, 0.0, 0.0, 0.16002516448497772, 0.16346628963947296, 0.0, -0.08373168110847473, 0.0, 0.16021853685379028, -0.0841326117515564, 0.16077472269535065, -0.08420657366514206, 0.16353566944599152, 0.16201503574848175, 0.16449441015720367, -0.06005173549056053, 0.0, 0.16261111199855804, 0.16427865624427795, 0.0, -0.05346658453345299, 0.16485480964183807, 0.1405705213546753, -0.051257628947496414, 0.0, -0.06005174666643143, 0.16453339159488678, 0.16363179683685303, -0.06005176156759262, 0.0, 0.1640021651983261, 0.0, -0.08321037888526917, 0.09533293545246124, -0.10101214796304703, 0.0, -0.05768877640366554, -0.06005173549056053, -0.060051754117012024, 0.16117264330387115, 0.16190847754478455, -0.060051657259464264, 0.0, 0.15876445174217224, -3.9354356904351684e-13, 0.0, 0.0], "kernel": [[-0.0861298143863678, -0.14765076339244843, 0.24227270483970642, -0.16646736860275269, 0.1509620100259781, 0.06780678033828735, -0.01756310649216175, 0.21974028646945953, -0.06012533977627754, -0.13373182713985443, -0.029959438368678093, 0.07144176959991455, -0.049705300480127335, 0.12480401247739792, -0.061201706528663635, -0.13856671750545502, 0.1109270378947258, -0.09546232968568802, -0.16085518896579742, 0.05698329955339432, 0.037533752620220184, 0.18160949647426605, 0.055242907255887985, 0.1969556212425232, -0.09984758496284485, 0.25127318501472473, -0.043586671352386475, 0.13571080565452576, -0.07119430601596832, 0.2571052312850952, 0.3417675793170929, 0.022966256365180016, 0.04094785824418068, -0.1681501269340515, -0.09602060914039612, 0.06399977207183838, -0.15069697797298431, 0.21808375418186188, 0.17023207247257233, 0.2051624059677124, 0.18196088075637817, 0.030838338658213615, -0.14298342168331146, 0.18343280255794525, -0.057939618825912476, 0.1364259272813797, 0.08567041158676147, 0.06630603224039078, 0.17977052927017212, -0.2784099280834198, 0.29750484228134155, 0.014297254383563995, 0.06902776658535004, 0.11531178653240204, 0.2531270682811737, -0.2469407469034195, 0.2961300313472748, 0.1598593145608902, 0.15430092811584473, -0.05077413097023964, 0.1912430226802826, -0.05441100150346756, 0.19175703823566437, -0.1636357605457306], [0.13096056878566742, -0.05382433533668518, -0.16328053176403046, 0.15608417987823486, -0.06193515658378601, -0.13379576802253723, -0.012910871766507626, 0.131467804312706, 0.0590982586145401, 0.002355448668822646, -0.11983578652143478, -0.08233805745840073, 0.0702635794878006, -0.1400277465581894, -0.10269242525100708, -0.004465555306524038, -0.12571673095226288, -0.05223357677459717, 0.11128519475460052, -0.14938607811927795, -0.0025644581764936447, 0.15231601893901825, -0.19452771544456482, -0.23073387145996094, -0.11215230077505112, 0.08500232547521591, 0.056893523782491684, -0.03649378567934036, 0.0030409125611186028, -0.15195822715759277, 0.1295565664768219, 0.046313896775245667, -0.054699141532182693, 0.09958305954933167, -0.01903216913342476, 0.025983542203903198, -0.008300370536744595, -0.03229257091879845, -0.0227831918746233, 0.041951414197683334, -0.21707531809806824, 0.033289648592472076, 0.05270783230662346, 0.09696846455335617, -0.1625230312347412, 0.20334872603416443, -0.12164576351642609, 0.05189474672079086, -0.0331636443734169, 0.06869857758283615, 0.11353769898414612, 0.0936131402850151, -0.026922771707177162, -0.017898589372634888, 0.05655810236930847, 0.12445807456970215, 0.09561130404472351, 0.12615935504436493, 0.11110711842775345, -0.04441557824611664, 0.10258064419031143, 0.06250061094760895, -0.13009919226169586, -0.08360131084918976], [0.005071742460131645, -0.1640676110982895, 0.2872573435306549, 0.013565161265432835, -0.12357398867607117, 0.06910886615514755, -0.007066583260893822, 0.2570435106754303, -0.06659761071205139, 0.12367760390043259, -0.12226595729589462, 0.11779411137104034, 0.04068756103515625, -0.033668022602796555, -0.032829247415065765, -0.23908931016921997, -0.0871349424123764, -0.12240798771381378, -0.12947815656661987, 0.024531947448849678, 0.155930757522583, 0.13021345436573029, 0.09402929246425629, 0.13797517120838165, -0.09983688592910767, 0.10127411782741547, -0.05813636630773544, 0.20067723095417023, 0.09803052246570587, 0.05714884772896767, 0.22853662073612213, 0.016620546579360962, -0.16161678731441498, -0.0517435260117054, 0.32133910059928894, 0.10191166400909424, 0.248428612947464, -0.3028205335140228, 0.11720893532037735, 0.18572691082954407, 0.014387761242687702, -0.09051544964313507, -0.12516185641288757, 0.012325555086135864, 0.20312215387821198, -0.07705990225076675, -0.025610269978642464, 0.35773080587387085, 0.2230638861656189, 0.04828447848558426, 0.1353163719177246, -0.2109522670507431, -0.07709700614213943, -0.0823950543999672, -0.08074142038822174, -0.10667731612920761, 0.17824867367744446, 0.19523237645626068, 0.08901192247867584, 0.033580996096134186, 0.08185301721096039, -0.11879365891218185, 0.03512745723128319, -0.1717422902584076], [-0.17229822278022766, 0.07741877436637878, 0.19673395156860352, 0.06997843086719513, 0.0289334487169981, -0.07866158336400986, 0.057381872087717056, 0.07336094230413437, -0.1453949213027954, -0.2545137405395508, -0.23321571946144104, 0.15319062769412994, 0.1444127857685089, -0.03409905359148979, 0.06662940979003906, 0.07271384447813034, 0.27194979786872864, 0.0050911810249090195, -0.12432572990655899, 0.021602842956781387, -0.019837677478790283, 0.24885070323944092, -0.06645233929157257, -0.2708299160003662, 0.07541240751743317, 0.12414012104272842, -0.052462443709373474, 0.04485522583127022, 0.17421187460422516, -0.03379324451088905, 0.07530054450035095, 0.09822772443294525, -0.10834024846553802, 0.2231728583574295, -0.022347765043377876, -0.0952451154589653, -0.03404455631971359, -0.11256449669599533, 0.15492792427539825, -0.014778646640479565, 0.04676869511604309, -0.05504660680890083, -0.005502650979906321, 0.05616021901369095, 0.08277285099029541, 0.03185376897454262, -0.22049160301685333, 0.19807009398937225, -0.07168267667293549, -0.16269396245479584, -0.020614830777049065, 0.01239809114485979, -0.043253764510154724, 0.04911947250366211, -0.020730648189783096, -0.08893492817878723, -0.20645147562026978, 0.04396870359778404, -0.0866348147392273, 0.033131200820207596, 0.013705813325941563, -0.08800198137760162, -0.06027784198522568, 0.032524943351745605], [0.027087518945336342, -0.07875234633684158, 0.0005421042442321777, -0.05460120365023613, 0.036827705800533295, 0.2328132539987564, 0.1085650771856308, 0.012882139533758163, 0.14911127090454102, -0.12813149392604828, -0.07978247106075287, -0.25182488560676575, 0.005494988523423672, -0.014686916954815388, 0.1097327172756195, -0.12282230705022812, -0.1747862994670868, 0.021734347566962242, -0.27553945779800415, -0.09625644981861115, -0.26481664180755615, -0.2035035490989685, -0.07924354821443558, 0.07316865026950836, 0.007342711091041565, -0.06483763456344604, -0.011953640729188919, -0.19116893410682678, -0.010363527573645115, 0.10645131021738052, 0.06441234052181244, 0.1419641226530075, -0.13187828660011292, -0.09501366317272186, 0.1477782130241394, 0.1027538999915123, -0.07439947128295898, -0.19428540766239166, -0.02769148349761963, 0.17588017880916595, -0.09994155168533325, 0.19873569905757904, -0.06910863518714905, -0.07481330633163452, -0.04827246442437172, 0.05712097883224487, -0.044523052871227264, 0.19117435812950134, -0.07140690833330154, -0.12148377299308777, 0.07621592283248901, -0.0416097529232502, 0.1030016839504242, -0.04572860151529312, -0.0491538941860199, -0.1478976309299469, -0.02369961515069008, -0.2548738718032837, -0.19673018157482147, -0.08760462701320648, -0.030310336500406265, -0.056547533720731735, -0.12125822901725769, -0.10606631636619568], [0.11762398481369019, 0.07289954274892807, -0.06381957232952118, -0.00304310186766088, 0.011695658788084984, 0.15435566008090973, -0.15632985532283783, 0.01239854097366333, 0.027388470247387886, 0.08053266257047653, -0.008389368653297424, 0.048863790929317474, -0.11420834064483643, 0.08208558708429337, -0.022845640778541565, -0.21749116480350494, -0.016632080078125, -0.04652073234319687, 0.17614036798477173, 0.022567471489310265, 0.0016588658327236772, 0.056244321167469025, -0.07335676997900009, -0.14694319665431976, -0.09433029592037201, -0.1487300843000412, -0.10261523723602295, 0.17589014768600464, -0.002339677419513464, 0.000407232902944088, 0.2025456428527832, 0.15725181996822357, -0.06914445757865906, 0.04527820274233818, -0.005339822266250849, 0.16068030893802643, -0.09319928288459778, 0.13104209303855896, 0.13291914761066437, -0.053443677723407745, -0.07504353672266006, 0.06197148934006691, -0.00467030331492424, 0.2743857204914093, -0.20963238179683685, 0.04026991128921509, -0.03027605079114437, 0.07847432792186737, -0.11301106214523315, 0.18540479242801666, -0.08131222426891327, 0.09857192635536194, -0.15318064391613007, -0.1622391790151596, 0.0025355841498821974, -0.2715483009815216, 0.0411895215511322, -0.03347087278962135, -0.11886468529701233, -0.037214264273643494, -0.02921840362250805, -0.028454843908548355, 0.14544028043746948, -0.08140168339014053], [0.1427147537469864, -0.15007556974887848, 0.08919204026460648, -0.06487909704446793, 0.010681350715458393, -0.06253155320882797, -0.1202782467007637, 0.041538018733263016, 0.10520204901695251, -0.11056746542453766, 0.23775725066661835, -0.06599535048007965, -0.0337880402803421, -0.3351435959339142, -0.17965669929981232, 0.14544259011745453, -0.3055637776851654, -0.0037661411333829165, 0.112811379134655, -0.1175668016076088, 0.02174803428351879, 0.2933499217033386, -0.027710895985364914, 0.16801053285598755, -0.05841391906142235, -0.028282327577471733, -0.013392562046647072, 0.020090557634830475, -0.07399424910545349, 0.0964660495519638, 0.20499327778816223, 0.1070222407579422, 0.16633737087249756, 0.11076049506664276, 0.23432785272598267, 0.05232983082532883, -0.05701843649148941, 0.05189457908272743, 0.21116343140602112, 0.12643352150917053, -0.11214819550514221, -0.1404215693473816, -0.25384053587913513, 0.009097982197999954, 0.15021321177482605, 0.2186349481344223, -0.20108966529369354, 0.3179353177547455, -0.08560295403003693, -0.04544806852936745, 0.12133538722991943, 0.03403308615088463, -0.05093073099851608, 0.08689924329519272, 0.14627951383590698, -0.22813929617404938, -0.060094304382801056, 0.09889235347509384, -0.15552784502506256, 0.08027330040931702, 0.04278303682804108, 0.016949621960520744, 0.0042629665695130825, -0.05433080345392227], [0.07365933060646057, -0.07860404253005981, 0.1392577737569809, -0.05101829394698143, -0.05266037583351135, -0.11649714410305023, -0.14713716506958008, 0.013845193199813366, 0.003393501741811633, 0.13266576826572418, 0.08673418313264847, 0.056478261947631836, -0.20034751296043396, 